34 128
34 -0.055726 -0.123493 0.159296 0.032755 0.096704 -0.083000 0.157665 -0.010252 -0.094797 0.099435 -0.093110 0.004987 0.109216 -0.240175 -0.071085 -0.123826 0.066049 -0.050572 -0.018981 0.034750 0.224238 0.047074 0.169769 0.060448 -0.071537 -0.059877 -0.091759 0.070851 -0.005817 0.168459 -0.038112 0.133061 -0.106000 0.084468 -0.189439 -0.193938 0.181215 0.062338 0.073818 -0.041613 -0.258694 0.165865 0.064617 0.120590 -0.121803 0.116935 -0.078291 -0.097592 -0.058453 0.090385 0.124995 0.234456 0.048141 0.129179 -0.206510 -0.079191 -0.156331 -0.004263 -0.075187 0.082185 0.069459 -0.118060 -0.153208 0.131061 0.145869 -0.189271 -0.013030 -0.104797 0.039403 -0.074282 0.059267 -0.037792 -0.010096 -0.025490 -0.038650 -0.085302 -0.014349 -0.032113 -0.006786 0.096198 -0.058376 -0.149996 -0.015086 -0.180174 -0.124748 0.207395 -0.148811 0.017958 -0.023112 0.046454 0.076714 0.130683 0.050581 -0.040895 -0.051558 0.208153 -0.151147 0.075508 0.099395 -0.163331 -0.170005 0.087420 -0.064900 -0.036255 0.094980 0.081221 0.288651 -0.007466 -0.071174 -0.019905 0.093908 -0.101550 -0.035731 0.030952 -0.037728 0.018856 -0.119630 0.136388 -0.098541 0.095444 -0.059696 -0.198264 0.063418 -0.137097 0.037676 0.123978 0.075399 0.032141
1 -0.049807 -0.222731 0.136054 -0.062958 0.025249 -0.123524 0.148931 0.065959 0.037921 0.117507 -0.099685 0.128415 0.162928 -0.245483 -0.000507 -0.189734 -0.002954 -0.189750 0.048135 -0.002377 0.264755 -0.007547 0.161913 0.058351 0.012702 -0.000636 -0.076310 0.050524 0.093311 0.140551 0.008077 0.129344 -0.085189 0.059543 -0.137145 -0.243192 0.153994 0.068070 0.087717 -0.083762 -0.242665 0.050045 0.072649 0.194045 -0.220098 0.118499 -0.067231 -0.059380 0.096797 0.090511 -0.093396 0.165933 0.040563 0.218844 -0.202045 -0.067898 -0.095579 0.006875 -0.065635 0.022116 0.133220 -0.122456 -0.053947 0.109904 -0.001481 -0.013368 -0.058989 -0.029211 -0.013437 -0.166105 -0.120500 -0.005695 -0.053876 -0.083641 0.112236 0.006377 -0.000239 -0.010473 -0.046903 -0.105078 -0.164270 -0.083145 0.024002 -0.079800 -0.178720 0.020384 0.048906 -0.038037 0.082672 0.073048 0.163553 0.027646 0.091871 -0.079958 -0.137601 0.121893 -0.065739 -0.077183 0.094770 -0.036593 -0.127912 0.102351 -0.137952 -0.011082 0.027703 0.083738 0.240952 0.050577 -0.099754 -0.076423 0.092757 0.038362 0.008716 0.103230 -0.174030 -0.011731 -0.048245 0.131714 -0.127008 0.001980 -0.031290 -0.109225 0.136276 -0.170148 -0.153292 0.014574 0.144935 0.118854
33 -0.053921 -0.149516 0.154654 0.015493 0.083471 -0.093124 0.158278 0.007033 -0.064386 0.104372 -0.090389 0.029936 0.119375 -0.242609 -0.051638 -0.132967 0.048396 -0.079934 -0.013061 0.024298 0.239579 0.036326 0.170378 0.059376 -0.058332 -0.050699 -0.096022 0.065790 0.013767 0.164210 -0.029935 0.135355 -0.095811 0.077956 -0.182711 -0.205282 0.170427 0.064523 0.070025 -0.048766 -0.253605 0.144227 0.063602 0.124523 -0.140560 0.122367 -0.074761 -0.089042 -0.030874 0.087696 0.080854 0.225717 0.046432 0.138941 -0.205173 -0.074508 -0.145849 -0.002506 -0.066097 0.073935 0.086645 -0.121411 -0.129998 0.128398 0.118953 -0.157926 -0.017436 -0.090853 0.028603 -0.091354 0.028978 -0.031504 -0.018121 -0.037138 -0.012897 -0.065774 -0.010247 -0.031202 -0.017567 0.054454 -0.077009 -0.135223 -0.007968 -0.161435 -0.139481 0.171467 -0.111643 0.006586 -0.000485 0.051708 0.101926 0.115699 0.062841 -0.047915 -0.063701 0.197653 -0.134080 0.040486 0.105621 -0.141472 -0.163200 0.086378 -0.084013 -0.026045 0.086629 0.079171 0.284334 0.004456 -0.074226 -0.033204 0.091968 -0.072341 -0.027123 0.039633 -0.062481 0.017274 -0.104221 0.130002 -0.106588 0.072160 -0.051510 -0.181426 0.083587 -0.145339 0.001237 0.100849 0.084892 0.045724
3 -0.052060 -0.170729 0.147682 -0.019471 0.056584 -0.102504 0.151095 0.028983 -0.033421 0.106148 -0.092137 0.069179 0.133057 -0.244114 -0.033638 -0.158287 0.025955 -0.122719 0.014083 0.013630 0.240664 0.021785 0.160460 0.061348 -0.028632 -0.023462 -0.084230 0.064178 0.052972 0.156086 -0.016048 0.125070 -0.093886 0.075481 -0.157213 -0.214265 0.164510 0.064589 0.078328 -0.056719 -0.234176 0.093576 0.063283 0.154434 -0.165462 0.114613 -0.069362 -0.075401 0.013139 0.083818 0.010977 0.181666 0.041527 0.168525 -0.199939 -0.073161 -0.122365 0.001780 -0.072460 0.050160 0.097395 -0.114432 -0.094440 0.116875 0.067255 -0.091879 -0.031879 -0.060629 0.010701 -0.119644 -0.032928 -0.016938 -0.030063 -0.054110 0.042504 -0.032421 0.000110 -0.021136 -0.024136 -0.009348 -0.107128 -0.110775 0.002492 -0.124243 -0.144626 0.112807 -0.040277 -0.012424 0.031205 0.052879 0.118530 0.076316 0.066152 -0.062975 -0.098483 0.156376 -0.107994 -0.002337 0.093625 -0.091032 -0.143683 0.085944 -0.104442 -0.020215 0.060093 0.081256 0.255069 0.023842 -0.082039 -0.053569 0.088690 -0.027123 -0.009851 0.065783 -0.105174 0.006459 -0.083580 0.132742 -0.105967 0.041101 -0.044239 -0.153689 0.096230 -0.154680 -0.058697 0.063816 0.108327 0.075336
2 -0.042565 -0.197806 0.135781 -0.050806 0.033502 -0.110626 0.140266 0.054216 0.002824 0.109738 -0.092501 0.109167 0.150460 -0.234914 -0.011351 -0.173691 -0.001702 -0.154648 0.037387 0.001432 0.249277 0.006913 0.158803 0.052553 -0.012158 -0.000806 -0.076803 0.056704 0.084104 0.143710 0.004791 0.120001 -0.088232 0.069923 -0.133965 -0.217773 0.152035 0.060864 0.082853 -0.067350 -0.218186 0.060597 0.066553 0.169907 -0.192048 0.110220 -0.069541 -0.063560 0.063850 0.073550 -0.057863 0.148517 0.041842 0.192588 -0.189507 -0.063133 -0.094538 0.009787 -0.068509 0.031046 0.111550 -0.108556 -0.059207 0.097942 0.020876 -0.030746 -0.050483 -0.044330 -0.009830 -0.144482 -0.091739 -0.004140 -0.040414 -0.074157 0.085522 0.000844 0.002718 -0.013345 -0.041392 -0.067158 -0.143875 -0.095974 0.009775 -0.090375 -0.159737 0.059651 0.020945 -0.030237 0.069406 0.062496 0.148798 0.044675 0.077478 -0.082637 -0.123964 0.129895 -0.081003 -0.050649 0.085779 -0.049208 -0.125960 0.086863 -0.119181 -0.012586 0.034706 0.076918 0.244606 0.048634 -0.099218 -0.071168 0.084441 0.017389 0.004076 0.087073 -0.148869 -0.008595 -0.060388 0.128714 -0.122114 0.012641 -0.035033 -0.127402 0.122458 -0.166530 -0.113623 0.032840 0.134314 0.099276
32 -0.055108 -0.164042 0.144114 0.002372 0.072147 -0.093901 0.161894 0.013495 -0.047918 0.105598 -0.094209 0.047739 0.121494 -0.236673 -0.044130 -0.141657 0.043776 -0.104023 -0.006365 0.021246 0.240620 0.031475 0.164322 0.059462 -0.045896 -0.047875 -0.095312 0.064332 0.024233 0.157326 -0.022769 0.130400 -0.089002 0.071835 -0.176621 -0.210320 0.173920 0.071816 0.072779 -0.060198 -0.257441 0.131960 0.064533 0.137946 -0.158806 0.120911 -0.066550 -0.081012 -0.007647 0.087000 0.054443 0.219099 0.042170 0.156742 -0.205601 -0.079856 -0.138611 -0.002724 -0.066334 0.063032 0.091881 -0.118568 -0.118874 0.130888 0.092983 -0.135416 -0.030687 -0.075602 0.021829 -0.112540 -0.001445 -0.023462 -0.026163 -0.047879 0.007281 -0.055359 -0.011010 -0.026783 -0.025840 0.027670 -0.095006 -0.124115 0.002283 -0.143749 -0.145721 0.146151 -0.080660 0.001773 0.012412 0.051297 0.108932 0.100216 0.071751 -0.050902 -0.075275 0.182550 -0.118171 0.022008 0.097347 -0.127028 -0.151658 0.089296 -0.096615 -0.030705 0.077222 0.085456 0.278169 0.007088 -0.082899 -0.035932 0.094453 -0.055060 -0.019410 0.053008 -0.077715 0.014807 -0.093530 0.134821 -0.101404 0.061395 -0.050548 -0.170690 0.090802 -0.147348 -0.024232 0.084036 0.091675 0.063024
4 -0.045780 -0.203028 0.143292 -0.045403 0.039574 -0.119072 0.146771 0.056691 0.005338 0.115505 -0.095345 0.112170 0.159776 -0.249995 -0.015120 -0.181305 0.004066 -0.166007 0.037599 0.009493 0.262220 0.003103 0.161169 0.054406 -0.007144 -0.002528 -0.083195 0.060653 0.085054 0.151025 -0.001840 0.125013 -0.088338 0.068537 -0.144978 -0.231923 0.162960 0.069881 0.086083 -0.069811 -0.231051 0.061655 0.070456 0.181868 -0.194442 0.114442 -0.072623 -0.069488 0.059568 0.080490 -0.053558 0.160067 0.044069 0.198118 -0.198737 -0.066415 -0.103842 0.006987 -0.065941 0.026095 0.124449 -0.120911 -0.063226 0.107362 0.030667 -0.037263 -0.057022 -0.043944 -0.004155 -0.149382 -0.091289 -0.005166 -0.040451 -0.079672 0.089695 -0.005414 0.004891 -0.009513 -0.042666 -0.062950 -0.145603 -0.104432 0.014822 -0.095729 -0.166176 0.063093 0.022493 -0.033511 0.068337 0.067217 0.147809 0.044743 0.077635 -0.081766 -0.126483 0.139228 -0.089309 -0.049508 0.093460 -0.059563 -0.135787 0.095552 -0.121424 -0.009854 0.035295 0.084689 0.251028 0.045650 -0.101735 -0.072514 0.093978 0.009216 0.001607 0.090960 -0.148893 -0.004121 -0.067271 0.135438 -0.124089 0.015688 -0.034007 -0.131378 0.120731 -0.174070 -0.119433 0.035583 0.139175 0.104250
14 -0.047680 -0.180473 0.142364 -0.031454 0.049996 -0.101671 0.141988 0.035209 -0.017891 0.109486 -0.094798 0.084351 0.135529 -0.233979 -0.023643 -0.157731 0.017362 -0.130865 0.022418 0.007819 0.242050 0.017798 0.153739 0.057393 -0.023325 -0.013683 -0.076625 0.062545 0.054389 0.148578 -0.007745 0.122961 -0.088136 0.071085 -0.142591 -0.211770 0.154143 0.061458 0.076760 -0.062242 -0.227923 0.084031 0.063838 0.157362 -0.168526 0.112590 -0.068013 -0.065989 0.031110 0.082274 -0.014453 0.168290 0.040279 0.170795 -0.185962 -0.066387 -0.112284 0.007324 -0.066713 0.036119 0.101227 -0.114685 -0.076727 0.101280 0.048250 -0.067096 -0.037985 -0.056516 0.004736 -0.124232 -0.055095 -0.010687 -0.035750 -0.057108 0.056973 -0.019185 0.001015 -0.018891 -0.031858 -0.030153 -0.117745 -0.102826 0.009420 -0.104073 -0.151401 0.091919 -0.020049 -0.019716 0.045797 0.055692 0.124176 0.059392 0.068178 -0.066365 -0.102363 0.146780 -0.096079 -0.016408 0.090958 -0.075997 -0.136605 0.086475 -0.104642 -0.015217 0.046019 0.078865 0.247976 0.032426 -0.091334 -0.056983 0.082267 -0.016057 -0.010227 0.071735 -0.113468 -0.000793 -0.077717 0.125119 -0.111985 0.033813 -0.039251 -0.139782 0.103338 -0.156628 -0.072639 0.049577 0.112254 0.081392
24 -0.050558 -0.148992 0.154474 0.010486 0.076821 -0.092340 0.155697 0.011398 -0.054237 0.104935 -0.088425 0.034127 0.121080 -0.240928 -0.049664 -0.140685 0.045470 -0.093271 -0.001893 0.019927 0.235087 0.032148 0.163738 0.064799 -0.045533 -0.043881 -0.091521 0.061304 0.018864 0.162180 -0.029237 0.128993 -0.099235 0.070236 -0.173491 -0.207646 0.174822 0.065024 0.075185 -0.055960 -0.248665 0.138011 0.063752 0.136102 -0.147066 0.120795 -0.072879 -0.082172 -0.015786 0.087596 0.072083 0.217571 0.038463 0.153162 -0.197599 -0.070227 -0.135919 -0.001214 -0.067448 0.066490 0.083991 -0.117772 -0.119318 0.127422 0.102833 -0.147634 -0.025672 -0.080239 0.022591 -0.100358 0.013898 -0.025902 -0.029179 -0.040099 0.000243 -0.063735 -0.014117 -0.032028 -0.021980 0.044563 -0.083464 -0.123713 -0.003949 -0.148140 -0.142615 0.149224 -0.095789 0.009065 0.006856 0.055099 0.101425 0.103262 0.064029 -0.048541 -0.068735 0.190173 -0.121800 0.033807 0.097977 -0.132030 -0.157742 0.094771 -0.083389 -0.025847 0.076261 0.085506 0.273206 0.005886 -0.076176 -0.033270 0.099319 -0.062235 -0.024614 0.048388 -0.077832 0.011479 -0.098910 0.128454 -0.099788 0.073357 -0.050385 -0.174677 0.085868 -0.148658 -0.011609 0.095924 0.094475 0.056251
8 -0.046630 -0.195394 0.145206 -0.035225 0.042178 -0.109508 0.150772 0.044718 -0.004923 0.116670 -0.097359 0.095936 0.145061 -0.243991 -0.016767 -0.174344 0.013660 -0.147761 0.033023 0.010601 0.248431 0.008207 0.157147 0.053471 -0.011206 -0.007280 -0.078560 0.061262 0.066350 0.150805 -0.007558 0.125594 -0.088215 0.070404 -0.146314 -0.223488 0.162957 0.064245 0.086706 -0.065197 -0.234129 0.078195 0.063551 0.171755 -0.182513 0.117876 -0.073002 -0.069515 0.046006 0.087044 -0.033430 0.168560 0.045260 0.188668 -0.196736 -0.067018 -0.112417 0.003375 -0.068125 0.030525 0.110054 -0.120771 -0.074924 0.108779 0.041278 -0.059484 -0.043428 -0.050658 0.001392 -0.136344 -0.072460 -0.013403 -0.040732 -0.066567 0.069481 -0.013688 -0.001403 -0.016247 -0.035164 -0.045360 -0.127618 -0.102917 0.009632 -0.100474 -0.160094 0.077233 0.000938 -0.022835 0.054092 0.059030 0.135639 0.050308 0.073576 -0.070141 -0.113285 0.138080 -0.092026 -0.035206 0.089351 -0.073519 -0.132044 0.090280 -0.116817 -0.017934 0.046289 0.078302 0.249998 0.030527 -0.094720 -0.064179 0.086433 -0.001546 -0.003075 0.080533 -0.136175 0.001135 -0.072917 0.130203 -0.118521 0.027536 -0.040732 -0.139125 0.116006 -0.161474 -0.093044 0.041012 0.127959 0.089552
9 -0.048674 -0.185964 0.136592 -0.029355 0.049722 -0.105237 0.150313 0.040337 -0.006600 0.108915 -0.092551 0.088656 0.139391 -0.240683 -0.023769 -0.163634 0.015686 -0.135592 0.018412 0.010351 0.243521 0.016202 0.164818 0.053724 -0.020051 -0.018851 -0.085314 0.052283 0.056009 0.149221 -0.005814 0.129137 -0.091588 0.062895 -0.145057 -0.219630 0.163089 0.064782 0.075423 -0.061747 -0.239854 0.085636 0.067805 0.164295 -0.180269 0.114656 -0.066560 -0.073641 0.035115 0.081033 -0.015776 0.183734 0.039408 0.179789 -0.191791 -0.070035 -0.115601 0.002922 -0.063310 0.039726 0.107035 -0.116866 -0.085926 0.115816 0.053542 -0.075431 -0.040111 -0.055391 0.006399 -0.130890 -0.053861 -0.009423 -0.035780 -0.065689 0.060557 -0.026266 -0.005959 -0.014507 -0.039182 -0.028144 -0.121271 -0.103564 0.004644 -0.113956 -0.159455 0.086992 -0.018072 -0.016003 0.041331 0.064371 0.133599 0.060758 0.079094 -0.061074 -0.104482 0.148193 -0.092671 -0.022462 0.094654 -0.081004 -0.143824 0.091171 -0.114374 -0.019021 0.050497 0.079553 0.253388 0.031053 -0.094245 -0.060113 0.095509 -0.009728 -0.005440 0.071313 -0.122410 -0.001759 -0.077980 0.134335 -0.117537 0.038771 -0.043270 -0.142983 0.111201 -0.157441 -0.086075 0.056337 0.120332 0.089188
6 -0.043309 -0.266109 0.121864 -0.082741 0.001940 -0.132916 0.160370 0.092406 0.092536 0.124603 -0.098876 0.174373 0.174891 -0.246465 0.033731 -0.207770 -0.028247 -0.246176 0.062232 -0.018824 0.278764 -0.032233 0.163008 0.049013 0.050237 -0.000645 -0.079015 0.024544 0.115978 0.135703 0.037009 0.127437 -0.074411 0.037682 -0.118287 -0.257082 0.149084 0.081631 0.078765 -0.101599 -0.248474 0.028760 0.083370 0.209298 -0.265711 0.125945 -0.047592 -0.054848 0.158441 0.101126 -0.162375 0.167103 0.034391 0.250767 -0.199412 -0.074329 -0.080823 0.005325 -0.042088 -0.000433 0.164286 -0.121404 -0.020414 0.113850 -0.050441 0.035419 -0.077380 -0.006857 -0.025257 -0.206186 -0.176033 0.008834 -0.085819 -0.096038 0.166443 0.034059 -0.003689 0.005465 -0.071550 -0.172026 -0.206258 -0.042832 0.040953 -0.037306 -0.195003 -0.053949 0.118777 -0.052185 0.111700 0.087823 0.198417 -0.002800 0.117438 -0.079166 -0.161656 0.105460 -0.029332 -0.135531 0.101676 -0.003684 -0.115952 0.113298 -0.176920 -0.007367 -0.002383 0.082915 0.236799 0.069916 -0.107676 -0.096509 0.105372 0.097333 0.019241 0.126034 -0.222170 -0.011058 -0.021721 0.131002 -0.144148 -0.018976 -0.022360 -0.084923 0.185503 -0.192274 -0.237595 -0.014520 0.181928 0.151118
7 -0.042022 -0.268310 0.123387 -0.081126 0.004380 -0.134312 0.169088 0.091261 0.093803 0.127017 -0.104644 0.170547 0.178409 -0.256148 0.033056 -0.208341 -0.020660 -0.244794 0.052639 -0.018565 0.289505 -0.030839 0.170911 0.057072 0.049973 -0.009216 -0.089388 0.027154 0.107778 0.135669 0.036359 0.138470 -0.081303 0.033111 -0.128406 -0.262026 0.152232 0.076367 0.082168 -0.101138 -0.262109 0.039930 0.083380 0.215258 -0.264693 0.131563 -0.048230 -0.056056 0.154231 0.106269 -0.151182 0.183319 0.037997 0.257587 -0.213004 -0.073784 -0.088612 0.004520 -0.039007 0.011282 0.164897 -0.127770 -0.029282 0.123131 -0.041759 0.026971 -0.073038 -0.008813 -0.016488 -0.207719 -0.172226 0.008652 -0.089372 -0.098168 0.159380 0.028787 -0.008145 -0.000680 -0.071270 -0.168323 -0.201771 -0.045196 0.037266 -0.042032 -0.205224 -0.045806 0.102829 -0.046057 0.107127 0.094454 0.200287 0.002588 0.120649 -0.077740 -0.160482 0.118127 -0.031854 -0.131530 0.101557 -0.012763 -0.126322 0.120958 -0.181328 -0.011510 0.004155 0.079178 0.246162 0.059514 -0.107271 -0.090851 0.110932 0.094899 0.014660 0.120352 -0.223583 -0.011450 -0.028393 0.135422 -0.150641 -0.006743 -0.027747 -0.086138 0.190837 -0.190269 -0.233249 -0.011026 0.184809 0.157609
28 -0.053870 -0.159414 0.150161 -0.001484 0.068829 -0.091072 0.154261 0.012049 -0.054756 0.104951 -0.091072 0.050424 0.124320 -0.234592 -0.048907 -0.144166 0.037635 -0.102339 0.003585 0.024830 0.235567 0.029461 0.164086 0.059194 -0.048113 -0.036538 -0.093415 0.064774 0.031785 0.159911 -0.022572 0.130649 -0.090418 0.076457 -0.169945 -0.209870 0.171346 0.067628 0.076326 -0.055783 -0.244231 0.119599 0.062427 0.139310 -0.152908 0.116019 -0.076218 -0.081056 -0.012845 0.080732 0.046719 0.203647 0.045497 0.146857 -0.193092 -0.073071 -0.134207 -0.004295 -0.073024 0.060550 0.087759 -0.117709 -0.108170 0.123506 0.095711 -0.129748 -0.030629 -0.074047 0.016039 -0.109151 -0.003965 -0.020376 -0.026803 -0.050797 0.010944 -0.052094 -0.009112 -0.022001 -0.026394 0.032159 -0.094820 -0.129076 0.000434 -0.142683 -0.143376 0.150412 -0.078443 0.001383 0.013298 0.052103 0.109482 0.095375 0.063056 -0.057070 -0.075321 0.176368 -0.121111 0.026797 0.096559 -0.123922 -0.154009 0.091230 -0.093505 -0.027998 0.076152 0.085999 0.273797 0.015643 -0.079978 -0.042714 0.091678 -0.053398 -0.023131 0.051293 -0.079704 0.007462 -0.097084 0.128180 -0.102601 0.057283 -0.048638 -0.167672 0.085101 -0.146202 -0.025288 0.082396 0.094958 0.059511
30 -0.048779 -0.141019 0.147463 0.027205 0.086020 -0.081755 0.160911 -0.002755 -0.072741 0.101074 -0.093407 0.016835 0.107005 -0.233981 -0.061170 -0.130003 0.059031 -0.072314 -0.018967 0.029324 0.230735 0.036990 0.170478 0.058710 -0.057216 -0.062459 -0.092059 0.062711 -0.002545 0.162231 -0.033664 0.126144 -0.095457 0.068478 -0.178726 -0.189990 0.169103 0.066305 0.071525 -0.051359 -0.247592 0.154038 0.064321 0.122313 -0.126459 0.117715 -0.068342 -0.094136 -0.039026 0.090812 0.103737 0.232636 0.042465 0.129060 -0.193699 -0.073139 -0.149378 -0.001870 -0.058907 0.076966 0.075162 -0.117557 -0.133495 0.131522 0.130282 -0.172697 -0.020291 -0.093091 0.037074 -0.086329 0.043855 -0.031029 -0.019257 -0.032840 -0.025968 -0.081337 -0.012321 -0.028181 -0.017510 0.076759 -0.074884 -0.132885 -0.013224 -0.162740 -0.131212 0.177515 -0.126184 0.017638 -0.016936 0.053172 0.088959 0.112066 0.058708 -0.034370 -0.050210 0.200249 -0.137094 0.058433 0.103168 -0.154782 -0.159115 0.093402 -0.073707 -0.039408 0.085410 0.080616 0.280931 -0.004747 -0.076591 -0.023945 0.095414 -0.086871 -0.036406 0.030938 -0.045934 0.015280 -0.108869 0.128773 -0.100542 0.090902 -0.059237 -0.180871 0.075789 -0.136025 0.015150 0.112865 0.085590 0.041726
26 -0.051034 -0.165554 0.149165 -0.002820 0.070177 -0.099681 0.163963 0.014017 -0.049042 0.106853 -0.097183 0.049442 0.131508 -0.245282 -0.046132 -0.146698 0.042116 -0.111418 -0.001117 0.024347 0.246513 0.027359 0.170376 0.061272 -0.044110 -0.045812 -0.096097 0.059233 0.027035 0.164389 -0.017622 0.130099 -0.089048 0.067756 -0.180261 -0.217130 0.175997 0.070816 0.073439 -0.063392 -0.255559 0.122119 0.061805 0.141765 -0.162851 0.126878 -0.074275 -0.081566 -0.003978 0.092639 0.048049 0.217481 0.043817 0.158571 -0.208493 -0.080186 -0.136960 -0.001498 -0.073002 0.062584 0.098854 -0.124107 -0.113819 0.132858 0.092470 -0.128669 -0.032102 -0.079218 0.019223 -0.114106 -0.007013 -0.024066 -0.030477 -0.051224 0.019142 -0.056566 -0.015246 -0.024157 -0.027850 0.020195 -0.105472 -0.123840 0.003459 -0.141981 -0.146293 0.144492 -0.078192 -0.002953 0.015673 0.052897 0.114916 0.095134 0.074280 -0.049702 -0.077888 0.179679 -0.119526 0.020353 0.103468 -0.123640 -0.150936 0.092175 -0.097653 -0.025156 0.075670 0.086373 0.280914 0.014561 -0.079066 -0.037151 0.091482 -0.052263 -0.018580 0.058520 -0.084936 0.010357 -0.091446 0.129794 -0.099985 0.052676 -0.048415 -0.167990 0.089359 -0.154216 -0.031098 0.086978 0.096263 0.059723
5 -0.044046 -0.253332 0.118915 -0.074382 0.014947 -0.129120 0.161066 0.078979 0.080912 0.117005 -0.094597 0.159324 0.163317 -0.239237 0.025554 -0.199130 -0.020023 -0.226852 0.049418 -0.012893 0.277415 -0.018938 0.161009 0.058281 0.038354 -0.010003 -0.084082 0.028095 0.099948 0.132047 0.026942 0.129439 -0.081961 0.041201 -0.121900 -0.252718 0.149817 0.076757 0.079155 -0.090567 -0.244809 0.041844 0.077231 0.199809 -0.249403 0.123870 -0.048341 -0.057156 0.134194 0.096794 -0.131233 0.178556 0.040946 0.235434 -0.201103 -0.075162 -0.086294 0.005805 -0.040954 0.008903 0.150175 -0.125646 -0.032113 0.119703 -0.033580 0.016014 -0.062934 -0.017151 -0.014187 -0.193017 -0.154025 0.005363 -0.079042 -0.095328 0.142654 0.018456 -0.006743 -0.007309 -0.069049 -0.149886 -0.190104 -0.052984 0.030980 -0.052447 -0.196126 -0.030506 0.091361 -0.038310 0.100518 0.085706 0.187583 0.009521 0.111572 -0.073055 -0.153947 0.118301 -0.044870 -0.116367 0.105171 -0.015604 -0.130724 0.113583 -0.168020 -0.015343 0.006047 0.078392 0.246013 0.056014 -0.109661 -0.088170 0.101436 0.078287 0.014439 0.109882 -0.206248 -0.006001 -0.027680 0.134842 -0.138545 -0.003049 -0.027708 -0.091063 0.174289 -0.188248 -0.212137 0.000457 0.166328 0.146431
11 -0.052033 -0.242817 0.137555 -0.058283 0.029936 -0.127944 0.161574 0.071202 0.051129 0.117835 -0.100622 0.136145 0.161340 -0.248468 0.012146 -0.196152 -0.006773 -0.204590 0.040936 -0.011527 0.280736 -0.011053 0.174693 0.057495 0.016030 -0.017342 -0.088761 0.039920 0.086745 0.141287 0.019455 0.133807 -0.081012 0.043777 -0.133038 -0.239181 0.158740 0.077077 0.080358 -0.081349 -0.246685 0.062581 0.079899 0.189003 -0.230261 0.128204 -0.052650 -0.060829 0.103372 0.098100 -0.091089 0.186251 0.038074 0.223603 -0.205803 -0.075088 -0.097852 0.007963 -0.053408 0.027135 0.140774 -0.125239 -0.048809 0.123591 -0.006625 -0.016384 -0.063591 -0.032138 -0.004018 -0.178230 -0.120316 -0.001257 -0.071959 -0.084848 0.119738 0.005754 -0.005700 -0.011037 -0.061580 -0.111204 -0.171772 -0.067129 0.023924 -0.077287 -0.190173 0.011113 0.055757 -0.033346 0.083463 0.083090 0.172586 0.027048 0.104695 -0.070047 -0.133386 0.134119 -0.059190 -0.084372 0.102794 -0.040965 -0.132122 0.115313 -0.155171 -0.011623 0.023378 0.082865 0.259455 0.046247 -0.100542 -0.081735 0.105134 0.053213 0.001900 0.100959 -0.182046 -0.008216 -0.048364 0.136946 -0.137119 0.007892 -0.031616 -0.116145 0.162985 -0.183027 -0.172949 0.016355 0.154042 0.127681
25 -0.052971 -0.156728 0.138100 -0.003179 0.059851 -0.093224 0.149882 0.011325 -0.039018 0.102072 -0.090899 0.046448 0.120414 -0.226422 -0.043062 -0.143199 0.039942 -0.106045 0.002855 0.024975 0.233333 0.023770 0.159118 0.060074 -0.038560 -0.044011 -0.086225 0.058443 0.023891 0.156434 -0.017393 0.123500 -0.086901 0.065863 -0.175260 -0.206655 0.165419 0.072195 0.070194 -0.062003 -0.248838 0.122205 0.059134 0.134710 -0.154005 0.123662 -0.068025 -0.075458 -0.001470 0.088118 0.039967 0.210634 0.045862 0.155131 -0.203313 -0.076853 -0.130161 -0.006354 -0.068864 0.062055 0.090456 -0.116007 -0.107721 0.121307 0.086943 -0.128916 -0.032913 -0.072985 0.012868 -0.112637 -0.007938 -0.027638 -0.025283 -0.045162 0.015832 -0.055692 -0.014802 -0.023282 -0.022655 0.018948 -0.096932 -0.124572 0.001676 -0.141597 -0.143226 0.135622 -0.071994 -0.007813 0.012979 0.045684 0.106701 0.089858 0.070807 -0.053323 -0.079316 0.174312 -0.114362 0.017076 0.096910 -0.114081 -0.151692 0.090119 -0.098965 -0.025170 0.074436 0.080479 0.271161 0.014606 -0.077280 -0.040947 0.089436 -0.048959 -0.016965 0.052036 -0.088805 0.009652 -0.089943 0.129004 -0.101914 0.053698 -0.046553 -0.159143 0.087890 -0.152605 -0.032611 0.086924 0.093095 0.061446
29 -0.051666 -0.163538 0.148763 -0.004152 0.072635 -0.100516 0.158651 0.016007 -0.044497 0.108563 -0.092720 0.055264 0.127680 -0.245715 -0.044194 -0.151103 0.034029 -0.109248 0.004284 0.017441 0.245681 0.024388 0.162887 0.061470 -0.042824 -0.041825 -0.090259 0.060605 0.034339 0.160031 -0.019416 0.128699 -0.094085 0.070664 -0.171071 -0.209593 0.172444 0.066881 0.079204 -0.061706 -0.244675 0.125734 0.062033 0.139488 -0.152485 0.121953 -0.070926 -0.084481 -0.003959 0.088287 0.046595 0.208075 0.039928 0.158265 -0.204330 -0.069086 -0.128972 0.002836 -0.062675 0.062304 0.093925 -0.119847 -0.115547 0.123041 0.089018 -0.126707 -0.034034 -0.077118 0.022692 -0.104459 -0.008005 -0.024260 -0.029948 -0.045657 0.015329 -0.048958 -0.003353 -0.026316 -0.023521 0.022602 -0.101361 -0.119134 0.001068 -0.144674 -0.145100 0.136422 -0.072113 -0.004735 0.015703 0.053912 0.111309 0.091146 0.066421 -0.051161 -0.079016 0.183574 -0.121248 0.021496 0.099087 -0.120698 -0.157131 0.095727 -0.093396 -0.026294 0.070812 0.082815 0.268928 0.009215 -0.082336 -0.038111 0.099143 -0.048341 -0.023396 0.052745 -0.090408 0.006759 -0.093677 0.132874 -0.106428 0.063524 -0.050450 -0.165808 0.090902 -0.155397 -0.031751 0.088148 0.101027 0.061974
20 -0.048516 -0.175473 0.141556 -0.020471 0.051571 -0.105459 0.152126 0.031955 -0.024407 0.105555 -0.093982 0.070837 0.139104 -0.236537 -0.030537 -0.157325 0.019322 -0.125082 0.015093 0.008262 0.247419 0.015392 0.164487 0.059965 -0.024191 -0.023575 -0.079771 0.057035 0.050181 0.146596 -0.014593 0.126049 -0.091192 0.067124 -0.152094 -0.212382 0.164071 0.061298 0.076800 -0.067176 -0.242561 0.097894 0.062322 0.151960 -0.167893 0.116634 -0.065392 -0.074691 0.027320 0.082832 0.000914 0.190764 0.044663 0.168547 -0.197980 -0.069447 -0.117411 -0.002286 -0.068363 0.050583 0.105848 -0.113620 -0.091438 0.115810 0.061187 -0.088924 -0.036543 -0.059790 0.005839 -0.118008 -0.040281 -0.016816 -0.035097 -0.057363 0.042517 -0.030901 -0.002219 -0.022219 -0.029403 -0.011708 -0.112743 -0.110430 0.003794 -0.123600 -0.147826 0.103709 -0.039835 -0.011272 0.032672 0.060008 0.124970 0.073627 0.072998 -0.061593 -0.095960 0.157538 -0.099789 -0.010557 0.092805 -0.087395 -0.146631 0.088940 -0.107670 -0.018293 0.055597 0.082172 0.258166 0.025104 -0.083322 -0.048622 0.088980 -0.019563 -0.011024 0.068313 -0.113949 0.002986 -0.074399 0.133604 -0.113197 0.045008 -0.044060 -0.143781 0.104215 -0.159987 -0.066086 0.066577 0.109194 0.078841
31 -0.046336 -0.167595 0.144143 -0.010360 0.058464 -0.102002 0.150026 0.023042 -0.030690 0.106455 -0.088335 0.069375 0.133828 -0.238191 -0.033292 -0.155381 0.024053 -0.116442 0.011582 0.013945 0.241493 0.017820 0.158675 0.062003 -0.027562 -0.030410 -0.082754 0.060970 0.040355 0.150819 -0.017910 0.129887 -0.094454 0.069344 -0.154810 -0.206085 0.160969 0.062594 0.079535 -0.065254 -0.238860 0.109727 0.064745 0.145605 -0.163559 0.115984 -0.070431 -0.079062 0.015098 0.088245 0.016051 0.198592 0.041857 0.163507 -0.194379 -0.072422 -0.120614 -0.000829 -0.067494 0.047280 0.101634 -0.117328 -0.101627 0.113437 0.068929 -0.102190 -0.038865 -0.067628 0.011242 -0.116230 -0.026786 -0.022304 -0.031162 -0.053862 0.036037 -0.039401 -0.001421 -0.023695 -0.025262 0.000433 -0.105864 -0.112087 0.001136 -0.127523 -0.147255 0.111461 -0.052531 -0.010654 0.028153 0.054836 0.113557 0.081546 0.074732 -0.056879 -0.094601 0.164968 -0.108527 -0.000466 0.095859 -0.096980 -0.150042 0.092557 -0.099625 -0.027475 0.058229 0.080668 0.262761 0.021840 -0.082886 -0.045869 0.089067 -0.035653 -0.017450 0.058535 -0.100890 0.008772 -0.086058 0.135136 -0.114394 0.052618 -0.047705 -0.154686 0.097921 -0.157856 -0.055779 0.072741 0.104025 0.073540
23 -0.051891 -0.143674 0.149457 0.013659 0.078418 -0.089927 0.159155 0.008741 -0.063623 0.104056 -0.094717 0.034355 0.122352 -0.246209 -0.057020 -0.136694 0.046405 -0.082159 -0.007180 0.028747 0.238080 0.033611 0.165059 0.065624 -0.052771 -0.049321 -0.097568 0.063981 0.010907 0.165840 -0.030851 0.135164 -0.100299 0.075750 -0.184565 -0.209388 0.179568 0.062876 0.073467 -0.053370 -0.258028 0.145017 0.064413 0.133982 -0.141198 0.119495 -0.075446 -0.085058 -0.029712 0.088429 0.081110 0.221277 0.048107 0.141523 -0.204292 -0.081003 -0.146222 -0.003776 -0.070106 0.064572 0.085320 -0.121001 -0.127078 0.127851 0.117565 -0.154241 -0.021170 -0.083864 0.027829 -0.091483 0.022612 -0.030803 -0.014315 -0.039976 -0.011564 -0.065553 -0.006979 -0.031040 -0.013580 0.055613 -0.073361 -0.135187 -0.003721 -0.158664 -0.138819 0.169199 -0.107730 0.007766 -0.002435 0.047042 0.096101 0.112093 0.058143 -0.045384 -0.073306 0.187247 -0.130876 0.039260 0.098525 -0.135024 -0.163056 0.087973 -0.080894 -0.035577 0.083054 0.078828 0.279875 -0.000361 -0.076496 -0.029771 0.090783 -0.073468 -0.028469 0.040007 -0.068563 0.016275 -0.108354 0.140178 -0.104181 0.076775 -0.052929 -0.178137 0.078679 -0.152303 -0.000217 0.099267 0.088396 0.050825
13 -0.041956 -0.196055 0.134557 -0.044377 0.036118 -0.109020 0.144824 0.046685 0.008867 0.111949 -0.093645 0.099446 0.144829 -0.234635 -0.009390 -0.167698 0.002529 -0.154219 0.030070 0.001204 0.247263 0.004431 0.150538 0.053274 -0.009855 -0.009369 -0.073710 0.054220 0.072364 0.139988 -0.001210 0.122671 -0.083311 0.058635 -0.131792 -0.216871 0.151896 0.067638 0.077742 -0.066118 -0.218110 0.065651 0.064558 0.166192 -0.184812 0.113858 -0.061783 -0.062478 0.056589 0.082007 -0.050924 0.162850 0.041605 0.185027 -0.185815 -0.066758 -0.102753 0.002165 -0.056222 0.025952 0.113842 -0.110395 -0.064029 0.101945 0.029158 -0.044558 -0.048515 -0.044703 0.002597 -0.141812 -0.083597 -0.007215 -0.044446 -0.071433 0.080259 -0.010654 -0.002391 -0.013177 -0.043381 -0.062475 -0.135186 -0.091443 0.012129 -0.091651 -0.162004 0.055987 0.017026 -0.025150 0.055498 0.068279 0.144604 0.041497 0.074855 -0.073052 -0.112330 0.128291 -0.077775 -0.049084 0.086017 -0.057825 -0.123122 0.090183 -0.119210 -0.013781 0.034817 0.072265 0.238883 0.034963 -0.091394 -0.069720 0.090071 0.011685 -0.001699 0.084300 -0.140174 -0.006662 -0.063747 0.126127 -0.114077 0.016879 -0.033888 -0.119474 0.123453 -0.154433 -0.111231 0.034973 0.127775 0.097986
22 -0.044278 -0.198018 0.136963 -0.038659 0.040386 -0.113366 0.148354 0.044332 -0.001328 0.111008 -0.096414 0.101694 0.149779 -0.241963 -0.012846 -0.172319 0.005527 -0.153448 0.031753 0.009561 0.255451 0.007089 0.164454 0.056568 -0.013811 -0.010074 -0.081662 0.050582 0.070470 0.148901 -0.001403 0.123644 -0.089357 0.064324 -0.142750 -0.222489 0.155764 0.063630 0.077096 -0.071814 -0.228875 0.071931 0.062974 0.169522 -0.185276 0.119319 -0.069894 -0.063985 0.056459 0.081689 -0.041477 0.169494 0.039123 0.184831 -0.189761 -0.068575 -0.103227 0.006510 -0.061923 0.029541 0.116047 -0.113683 -0.069271 0.111595 0.033065 -0.050140 -0.050960 -0.045844 0.004465 -0.135190 -0.076935 -0.007660 -0.042297 -0.070617 0.078890 -0.010033 -0.004342 -0.012533 -0.035492 -0.053027 -0.136733 -0.096525 0.015291 -0.102150 -0.159496 0.065410 0.006419 -0.027672 0.058234 0.062787 0.140831 0.049492 0.078999 -0.073482 -0.114511 0.139328 -0.086074 -0.038023 0.094725 -0.067813 -0.134056 0.093322 -0.116865 -0.013354 0.042119 0.081346 0.248308 0.038662 -0.092568 -0.063002 0.091420 0.004899 -0.000728 0.084120 -0.137703 -0.002066 -0.069507 0.130838 -0.120562 0.022804 -0.035727 -0.133554 0.120283 -0.164838 -0.101802 0.041533 0.127859 0.095815
21 -0.055268 -0.149914 0.152662 0.001737 0.072354 -0.095509 0.159434 0.008650 -0.056129 0.109996 -0.093541 0.040578 0.126127 -0.247702 -0.051136 -0.142819 0.044977 -0.095606 -0.002230 0.022414 0.246637 0.031574 0.168249 0.067033 -0.047132 -0.047710 -0.092912 0.066010 0.021585 0.163134 -0.024107 0.132716 -0.099415 0.075684 -0.181593 -0.214847 0.174816 0.069034 0.080137 -0.055876 -0.260915 0.140046 0.061482 0.136440 -0.153439 0.123076 -0.071791 -0.085883 -0.012364 0.089807 0.070162 0.222483 0.047141 0.151652 -0.208081 -0.075364 -0.140497 -0.005611 -0.072152 0.070261 0.087019 -0.119102 -0.123635 0.130134 0.109768 -0.144120 -0.026305 -0.086435 0.021180 -0.106105 0.013148 -0.032616 -0.022125 -0.042921 0.003935 -0.061821 -0.011575 -0.033891 -0.019534 0.042580 -0.089733 -0.128424 -0.005568 -0.155894 -0.146418 0.152073 -0.096560 0.001034 0.010211 0.050432 0.106286 0.106616 0.063405 -0.044969 -0.077059 0.187089 -0.129002 0.032845 0.102345 -0.130437 -0.162687 0.089912 -0.089675 -0.026659 0.082697 0.085549 0.280312 0.003242 -0.082128 -0.036246 0.100162 -0.058419 -0.024577 0.050098 -0.079511 0.017894 -0.102624 0.137570 -0.106337 0.075089 -0.052963 -0.175589 0.087227 -0.156585 -0.014725 0.097374 0.098548 0.054590
17 -0.048612 -0.253149 0.133000 -0.060723 0.017766 -0.132944 0.172311 0.078337 0.067192 0.128451 -0.101869 0.151863 0.171182 -0.252406 0.012689 -0.196855 -0.007770 -0.225160 0.042063 -0.006634 0.284065 -0.021633 0.176422 0.052777 0.031723 -0.014561 -0.091307 0.035205 0.096365 0.148720 0.025091 0.136449 -0.080453 0.042421 -0.141004 -0.259392 0.164943 0.083623 0.081146 -0.090818 -0.264676 0.055505 0.079658 0.205686 -0.250962 0.128931 -0.052108 -0.061337 0.120812 0.105370 -0.111813 0.189167 0.039228 0.234365 -0.209521 -0.079787 -0.103996 0.009236 -0.043055 0.015355 0.152835 -0.128794 -0.045850 0.124246 -0.013337 -0.003950 -0.068789 -0.025707 -0.007474 -0.187256 -0.141481 0.000743 -0.076048 -0.092118 0.133610 0.014688 -0.011324 -0.007194 -0.062706 -0.131546 -0.183853 -0.063764 0.035270 -0.063126 -0.197718 -0.005976 0.074154 -0.040005 0.093671 0.085391 0.178784 0.020969 0.109290 -0.069102 -0.145248 0.131078 -0.049123 -0.097040 0.108018 -0.035155 -0.130845 0.116820 -0.166664 -0.012800 0.019099 0.083620 0.259978 0.047974 -0.108835 -0.079347 0.110377 0.063886 0.012380 0.112594 -0.194954 -0.007363 -0.043114 0.142229 -0.141229 0.001008 -0.027792 -0.104142 0.173830 -0.183340 -0.198331 0.009079 0.167696 0.141213
10 -0.049315 -0.148746 0.144670 0.003959 0.074391 -0.086268 0.154061 0.010632 -0.053344 0.099232 -0.088920 0.041880 0.117512 -0.230593 -0.050665 -0.134871 0.044214 -0.088153 -0.003877 0.023338 0.233904 0.030604 0.161998 0.064201 -0.048871 -0.042483 -0.086994 0.061227 0.021575 0.154133 -0.028096 0.122542 -0.092852 0.076051 -0.171973 -0.202333 0.169211 0.059042 0.071725 -0.055756 -0.243566 0.124692 0.064442 0.137491 -0.138291 0.119199 -0.067873 -0.083297 -0.012494 0.081509 0.062479 0.205373 0.045967 0.143717 -0.196299 -0.070175 -0.132088 -0.004775 -0.070510 0.064552 0.084706 -0.113242 -0.119978 0.120697 0.101983 -0.132359 -0.027180 -0.081119 0.019966 -0.099656 0.010676 -0.028683 -0.017212 -0.043476 0.006220 -0.056119 -0.007883 -0.028432 -0.022683 0.038233 -0.089652 -0.127806 -0.003544 -0.142153 -0.139652 0.150718 -0.090643 -0.000819 0.006180 0.048971 0.102251 0.098112 0.063058 -0.046691 -0.072760 0.179818 -0.122530 0.027903 0.096098 -0.121292 -0.152539 0.085050 -0.082396 -0.026984 0.072857 0.078127 0.268660 0.010911 -0.080079 -0.032718 0.093369 -0.064052 -0.021210 0.045646 -0.070350 0.011293 -0.095182 0.131994 -0.101907 0.062460 -0.049976 -0.167886 0.080850 -0.142430 -0.010687 0.088470 0.089303 0.054853
19 -0.048384 -0.159226 0.153478 -0.000661 0.071262 -0.094632 0.156949 0.012428 -0.046937 0.105640 -0.095993 0.047339 0.124705 -0.240221 -0.048396 -0.144393 0.038225 -0.105044 0.002922 0.022746 0.244804 0.025147 0.168995 0.065799 -0.042595 -0.041404 -0.092886 0.062659 0.024640 0.159172 -0.023070 0.132800 -0.096485 0.067302 -0.173855 -0.210206 0.167392 0.067984 0.079908 -0.057265 -0.251894 0.129635 0.064781 0.137811 -0.149785 0.121551 -0.067861 -0.087286 -0.007297 0.090930 0.055259 0.214737 0.039312 0.154958 -0.200100 -0.072151 -0.137765 0.000605 -0.063212 0.064201 0.089413 -0.119406 -0.114715 0.127978 0.096360 -0.137010 -0.025098 -0.079541 0.018185 -0.107256 0.003555 -0.026699 -0.025570 -0.044226 0.005815 -0.061477 -0.005964 -0.026366 -0.026103 0.028023 -0.094480 -0.123013 -0.002634 -0.149677 -0.146111 0.142679 -0.081836 0.003158 0.007932 0.053392 0.106022 0.101769 0.070992 -0.047534 -0.080675 0.186964 -0.121746 0.024729 0.101229 -0.125969 -0.156041 0.095820 -0.094060 -0.031146 0.073214 0.083710 0.275392 0.009996 -0.081560 -0.038126 0.094414 -0.053757 -0.021441 0.049335 -0.081097 0.013996 -0.090023 0.138487 -0.110682 0.070649 -0.052240 -0.170082 0.088688 -0.155834 -0.030378 0.092557 0.095556 0.058305
16 -0.050747 -0.143404 0.144823 0.004761 0.070449 -0.089630 0.151590 0.008942 -0.053407 0.100807 -0.090214 0.040037 0.115307 -0.226152 -0.044641 -0.136379 0.037668 -0.092315 -0.006886 0.017152 0.226031 0.031368 0.158417 0.058243 -0.044811 -0.041879 -0.085528 0.061993 0.019155 0.149101 -0.028236 0.126250 -0.092879 0.066989 -0.165349 -0.195694 0.167015 0.059169 0.070179 -0.056270 -0.240843 0.129827 0.062246 0.129101 -0.137175 0.112207 -0.066679 -0.077419 -0.019241 0.088140 0.064677 0.205371 0.042059 0.144246 -0.191744 -0.072034 -0.132587 -0.000361 -0.064403 0.058584 0.085639 -0.116184 -0.117406 0.114210 0.100205 -0.134198 -0.024445 -0.074453 0.020901 -0.097197 0.012639 -0.030924 -0.018930 -0.042938 0.004274 -0.058377 -0.003925 -0.030920 -0.020440 0.038399 -0.077839 -0.123651 -0.002593 -0.144596 -0.133148 0.149077 -0.087228 0.004540 0.008724 0.048938 0.092781 0.099390 0.056213 -0.045166 -0.070712 0.177865 -0.116366 0.028465 0.092998 -0.125221 -0.146326 0.086810 -0.078431 -0.029625 0.072032 0.074886 0.260238 0.005506 -0.072729 -0.031495 0.087454 -0.055796 -0.026187 0.047433 -0.069541 0.015126 -0.095471 0.131313 -0.098901 0.062710 -0.049082 -0.162058 0.078033 -0.143769 -0.011191 0.091293 0.088013 0.056631
18 -0.046500 -0.214118 0.136455 -0.047710 0.038739 -0.119007 0.154165 0.056176 0.020145 0.121961 -0.100258 0.119025 0.159136 -0.249751 -0.007630 -0.187569 0.002286 -0.173135 0.032009 0.006612 0.270297 0.000306 0.170947 0.059753 0.003483 -0.010262 -0.083944 0.050694 0.079055 0.151597 0.004294 0.133514 -0.087378 0.062722 -0.141220 -0.235858 0.160178 0.069605 0.083576 -0.074074 -0.245101 0.076077 0.068055 0.178801 -0.206326 0.124075 -0.067544 -0.066472 0.074025 0.088162 -0.058371 0.174290 0.043674 0.204092 -0.197266 -0.067186 -0.102092 0.001289 -0.061025 0.026193 0.124453 -0.121828 -0.063940 0.111004 0.022566 -0.037551 -0.051881 -0.042197 0.000229 -0.147295 -0.095205 -0.007145 -0.047666 -0.077655 0.093102 -0.003405 0.001790 -0.009938 -0.042876 -0.073342 -0.150859 -0.084430 0.020338 -0.092199 -0.173530 0.050151 0.025471 -0.028573 0.062644 0.071350 0.150623 0.040503 0.090337 -0.074458 -0.129245 0.140494 -0.080043 -0.051605 0.097809 -0.059695 -0.136134 0.103505 -0.130527 -0.016298 0.034773 0.081843 0.249162 0.037370 -0.098799 -0.071666 0.092889 0.017225 -0.002995 0.087376 -0.153824 -0.005650 -0.061020 0.132728 -0.122554 0.019109 -0.037309 -0.130293 0.131887 -0.174086 -0.126234 0.030859 0.135465 0.105872
15 -0.051959 -0.151824 0.145913 -0.004791 0.068679 -0.088401 0.149668 0.011513 -0.046745 0.099232 -0.086860 0.045258 0.121616 -0.229272 -0.041406 -0.140015 0.033894 -0.097823 -0.001051 0.014577 0.233412 0.029051 0.156954 0.061332 -0.044080 -0.037563 -0.087446 0.060868 0.028091 0.147989 -0.024682 0.125723 -0.088808 0.069122 -0.160867 -0.198231 0.158034 0.059917 0.076612 -0.052518 -0.236420 0.117678 0.059349 0.132734 -0.140312 0.115793 -0.071783 -0.078887 -0.006794 0.081713 0.048237 0.198084 0.040785 0.149707 -0.194853 -0.073232 -0.130178 -0.003875 -0.063720 0.061589 0.089848 -0.108373 -0.108699 0.112586 0.090854 -0.117494 -0.025390 -0.074552 0.021999 -0.096830 0.000660 -0.026693 -0.021585 -0.047377 0.009034 -0.051780 -0.004498 -0.026912 -0.024821 0.021744 -0.088710 -0.115244 -0.001877 -0.139221 -0.139131 0.131181 -0.077240 -0.005085 0.013876 0.053312 0.103824 0.093826 0.064744 -0.052470 -0.080358 0.173020 -0.113866 0.023787 0.095721 -0.109761 -0.145385 0.085556 -0.088530 -0.023762 0.070984 0.074698 0.261298 0.012432 -0.077373 -0.040503 0.089216 -0.050814 -0.021213 0.047743 -0.083108 0.014002 -0.087353 0.131754 -0.105541 0.062821 -0.044404 -0.161979 0.088434 -0.142614 -0.029876 0.083485 0.095543 0.060574
27 -0.055298 -0.142973 0.164081 0.027603 0.101029 -0.085567 0.171899 -0.003267 -0.091901 0.107122 -0.099806 0.004931 0.111725 -0.248027 -0.070536 -0.136250 0.072970 -0.070885 -0.019239 0.025935 0.245196 0.047204 0.178962 0.072308 -0.067078 -0.070372 -0.105171 0.075414 -0.007550 0.176451 -0.040330 0.133992 -0.105821 0.073595 -0.190195 -0.204281 0.178616 0.066237 0.074541 -0.051531 -0.267212 0.168608 0.064205 0.123686 -0.123353 0.126177 -0.070222 -0.098572 -0.052869 0.099290 0.131112 0.248795 0.038776 0.139323 -0.209587 -0.082373 -0.160597 -0.001421 -0.063540 0.087448 0.069900 -0.116757 -0.154076 0.138526 0.146243 -0.193552 -0.018409 -0.098023 0.039818 -0.082111 0.055271 -0.034207 -0.015791 -0.032697 -0.042094 -0.095358 -0.010834 -0.039123 -0.014538 0.093781 -0.067992 -0.144488 -0.012562 -0.175806 -0.137524 0.199127 -0.141948 0.018751 -0.026948 0.052201 0.077901 0.125752 0.056840 -0.034479 -0.053797 0.216464 -0.148494 0.069679 0.111058 -0.174151 -0.177723 0.097112 -0.065665 -0.042267 0.100266 0.090027 0.299319 -0.014808 -0.077099 -0.016554 0.105423 -0.099748 -0.039781 0.030039 -0.039617 0.019045 -0.118245 0.139077 -0.103601 0.099231 -0.063853 -0.195636 0.072541 -0.146004 0.026979 0.127893 0.082930 0.036499
12 -0.049835 -0.211339 0.134985 -0.049544 0.033511 -0.115236 0.147894 0.049648 0.016353 0.115770 -0.091116 0.115015 0.149151 -0.236666 -0.006558 -0.173584 -0.000478 -0.168086 0.036603 -0.002632 0.260001 0.004136 0.163879 0.054557 -0.003950 -0.014347 -0.079232 0.049406 0.076147 0.143313 0.007344 0.127924 -0.088946 0.058806 -0.135821 -0.224116 0.153310 0.070675 0.079955 -0.071882 -0.234399 0.068373 0.070688 0.172197 -0.201160 0.121574 -0.060423 -0.065451 0.069017 0.084630 -0.059696 0.174463 0.039041 0.193631 -0.196407 -0.070750 -0.099976 0.005030 -0.058262 0.031400 0.123247 -0.114778 -0.064072 0.113443 0.016137 -0.037689 -0.048691 -0.041370 0.000262 -0.146077 -0.087518 -0.003296 -0.050492 -0.072068 0.089681 -0.006499 0.000220 -0.008779 -0.045321 -0.068393 -0.147873 -0.083501 0.013338 -0.090399 -0.170011 0.048433 0.021469 -0.027458 0.061961 0.066247 0.149687 0.043956 0.084476 -0.071449 -0.117949 0.133126 -0.073150 -0.057584 0.096342 -0.056661 -0.136697 0.095780 -0.128486 -0.013527 0.034222 0.076671 0.247755 0.040332 -0.092151 -0.072403 0.090672 0.020938 -0.000322 0.090245 -0.150645 -0.001800 -0.059334 0.132362 -0.126117 0.016169 -0.037139 -0.125016 0.133031 -0.165099 -0.127852 0.033551 0.131911 0.104879
