34 128
34 -0.023793 -0.271682 0.099314 0.001660 0.011059 -0.122024 0.093468 -0.066048 0.085172 0.048719 -0.084889 0.241244 0.050551 -0.231373 -0.013196 -0.241860 -0.104329 -0.151425 0.074003 0.149625 0.298223 -0.002222 0.175853 0.128588 -0.056468 0.036303 -0.085307 -0.058587 -0.044071 0.149716 0.008009 0.084355 -0.140428 0.018959 -0.183676 -0.157326 0.234283 0.063258 0.010878 -0.052699 -0.181288 0.115128 0.034947 0.208757 -0.014083 0.268843 -0.018255 -0.038055 -0.057927 -0.028896 -0.093639 0.154186 0.089460 0.053370 -0.153430 0.042253 -0.055662 0.024133 -0.062061 0.033528 0.087321 -0.269876 0.097121 0.218681 -0.025279 -0.144647 -0.002357 -0.038158 -0.004882 -0.108186 -0.039133 0.069052 -0.092551 0.003604 0.104395 -0.001511 -0.012118 0.032998 -0.061981 0.035599 -0.055610 -0.139142 -0.030308 -0.179541 -0.195208 0.187997 -0.033771 0.007459 -0.004803 -0.050910 0.124994 0.021722 0.092732 -0.053630 -0.056329 0.265476 -0.160507 0.035050 0.072025 -0.064793 -0.293069 0.135105 -0.226805 0.023182 -0.042143 0.013814 0.186843 0.077009 -0.080430 -0.095062 0.027911 -0.012911 -0.028635 -0.102029 -0.153418 -0.016036 -0.125037 0.122263 -0.141397 0.134065 -0.059405 -0.148943 0.044690 -0.286674 0.014688 0.110756 -0.009414 0.100328
1 -0.030176 -0.199431 0.065704 -0.031972 0.009741 -0.105754 0.018314 0.095294 0.156164 0.022334 -0.009842 0.184339 0.009685 -0.145355 0.138130 -0.209763 -0.072062 -0.197059 0.089387 -0.068790 0.200361 0.030096 0.082654 0.137684 0.134347 0.066456 -0.034603 0.000586 0.014564 0.090041 -0.020420 0.068700 -0.178124 0.050344 -0.008323 -0.160841 0.100952 -0.017344 0.015271 -0.048297 -0.073727 -0.000444 0.075717 0.174496 -0.135625 0.114977 0.023925 0.025516 0.092593 0.067135 -0.145455 0.060617 -0.009399 0.168335 -0.100039 -0.008964 0.025428 0.086206 -0.047198 -0.034470 0.065297 -0.163325 0.089444 0.098656 -0.217831 0.061151 0.057476 0.063119 -0.028878 -0.179133 -0.131098 0.060038 -0.163989 -0.005388 0.233933 0.075825 0.069793 -0.092867 -0.032115 -0.214380 -0.085928 0.035358 -0.039522 0.005996 -0.253034 -0.068533 0.123045 0.026172 0.168195 -0.003020 0.147926 -0.038573 0.137471 -0.059799 -0.197742 0.185975 -0.017747 -0.183129 0.096982 0.106669 -0.175723 0.077159 -0.143959 0.009804 -0.112292 0.023705 0.095514 0.072157 -0.045406 -0.102757 -0.051951 0.120112 0.011143 0.010182 -0.218917 0.045640 -0.013810 0.069955 -0.132839 0.009927 -0.050543 -0.086661 0.142661 -0.278580 -0.148521 -0.078668 0.034476 0.181346
33 -0.023329 -0.278790 0.103619 0.000424 0.009726 -0.127532 0.090997 -0.059515 0.096308 0.050749 -0.078048 0.249956 0.051006 -0.241294 -0.001251 -0.248014 -0.114600 -0.161180 0.070656 0.142479 0.311634 -0.000750 0.179845 0.135824 -0.053790 0.043619 -0.092553 -0.057071 -0.039253 0.152899 0.001780 0.090039 -0.151490 0.024343 -0.194879 -0.178136 0.240186 0.061895 0.009122 -0.057179 -0.192087 0.117610 0.037899 0.219095 -0.023927 0.289962 -0.022139 -0.037605 -0.058476 -0.027981 -0.106654 0.165507 0.088748 0.060388 -0.163651 0.049200 -0.058952 0.031378 -0.064283 0.036822 0.100960 -0.294931 0.108281 0.231489 -0.036925 -0.145172 0.007599 -0.033568 -0.011667 -0.120442 -0.040406 0.071952 -0.099789 0.002540 0.119600 0.005930 -0.003115 0.021280 -0.065567 0.020018 -0.054205 -0.137409 -0.035813 -0.184226 -0.216731 0.185110 -0.029381 0.006548 0.010665 -0.053835 0.142002 0.025750 0.104834 -0.057640 -0.065629 0.285733 -0.167055 0.019587 0.088559 -0.060156 -0.314478 0.138208 -0.245406 0.033252 -0.042102 0.013628 0.194181 0.085729 -0.080320 -0.105324 0.023791 -0.005393 -0.027767 -0.109847 -0.165152 -0.007970 -0.128619 0.121821 -0.153655 0.131292 -0.059621 -0.157267 0.053782 -0.306696 0.011472 0.105961 -0.011590 0.107173
3 -0.027395 -0.228786 0.085427 -0.016122 0.007792 -0.111684 0.053786 0.013452 0.110923 0.032994 -0.039384 0.203148 0.025145 -0.187777 0.063943 -0.223463 -0.087311 -0.172188 0.078927 0.034093 0.238192 0.015766 0.120107 0.133711 0.042285 0.053577 -0.059032 -0.023364 -0.006747 0.118939 -0.010377 0.069341 -0.159611 0.039062 -0.095425 -0.159507 0.164048 0.024595 0.015555 -0.046224 -0.121746 0.051315 0.050313 0.188414 -0.073149 0.194290 0.001883 -0.009871 0.009946 0.017720 -0.116804 0.099646 0.034445 0.109977 -0.128292 0.016665 -0.016093 0.053240 -0.057118 0.003864 0.074994 -0.215049 0.097521 0.162293 -0.120450 -0.043480 0.033140 0.016578 -0.018001 -0.144277 -0.081074 0.065964 -0.129539 0.000995 0.170998 0.037155 0.036526 -0.030888 -0.042785 -0.089267 -0.067420 -0.046960 -0.038777 -0.089216 -0.219883 0.060876 0.046132 0.015330 0.078270 -0.030836 0.133960 -0.004641 0.112828 -0.058472 -0.130395 0.223995 -0.094791 -0.072845 0.088130 0.021681 -0.238449 0.102337 -0.192513 0.019747 -0.071646 0.021672 0.134504 0.074013 -0.055620 -0.103461 -0.012219 0.054138 -0.007164 -0.047653 -0.183109 0.022083 -0.068687 0.093357 -0.130527 0.070543 -0.055947 -0.123790 0.090911 -0.284099 -0.067474 0.016113 0.013218 0.137319
2 -0.023301 -0.212694 0.071312 -0.033740 0.011882 -0.110653 0.026485 0.070413 0.130786 0.029208 -0.025423 0.201681 0.019945 -0.167828 0.117366 -0.225000 -0.087809 -0.184112 0.087825 -0.031046 0.225255 0.034467 0.100092 0.135343 0.090057 0.075088 -0.043149 -0.000710 0.014877 0.106593 -0.016229 0.069987 -0.182952 0.061997 -0.042404 -0.163897 0.133933 -0.008775 0.017683 -0.047417 -0.089628 0.022734 0.067651 0.187064 -0.115013 0.152706 0.007630 0.012549 0.061362 0.041118 -0.144150 0.064215 0.015288 0.164879 -0.125756 0.004640 0.014380 0.081284 -0.060890 -0.022896 0.071766 -0.192950 0.092539 0.118224 -0.188563 0.029298 0.047963 0.041354 -0.028733 -0.174943 -0.126589 0.067231 -0.145789 -0.008512 0.218666 0.073427 0.066357 -0.072827 -0.037045 -0.172885 -0.083148 -0.007566 -0.044489 -0.031569 -0.243533 -0.005966 0.102581 0.018198 0.146950 -0.018212 0.153039 -0.026661 0.128092 -0.078898 -0.186020 0.208175 -0.057149 -0.150066 0.087635 0.076144 -0.199651 0.078695 -0.159054 0.014037 -0.100951 0.018691 0.117873 0.080496 -0.061413 -0.109989 -0.045722 0.096400 0.006876 -0.009897 -0.212381 0.035002 -0.038292 0.080471 -0.137059 0.025734 -0.056372 -0.112617 0.125318 -0.296531 -0.107958 -0.046071 0.029012 0.168079
32 -0.026490 -0.243456 0.082566 -0.014876 0.007701 -0.113212 0.061442 -0.005093 0.109874 0.039777 -0.053077 0.218737 0.032602 -0.194053 0.048965 -0.227228 -0.094016 -0.173826 0.075905 0.061559 0.260501 0.013989 0.132722 0.131423 0.014518 0.051597 -0.067725 -0.028628 -0.017470 0.123877 -0.006806 0.075924 -0.148475 0.032836 -0.119129 -0.160362 0.182795 0.036069 0.014020 -0.056962 -0.140568 0.069629 0.046799 0.193760 -0.064673 0.215487 -0.003751 -0.009280 -0.000616 0.004372 -0.119600 0.117517 0.046470 0.103388 -0.136847 0.023595 -0.024179 0.048370 -0.059737 0.006946 0.083546 -0.233814 0.098295 0.174889 -0.110161 -0.063241 0.018411 0.006713 -0.018625 -0.143694 -0.080945 0.069751 -0.118892 -0.003043 0.155591 0.031874 0.024610 -0.017021 -0.052168 -0.066100 -0.068621 -0.069889 -0.031383 -0.105041 -0.218862 0.088745 0.031888 0.011985 0.068075 -0.038259 0.137567 -0.000734 0.116085 -0.061581 -0.110725 0.235676 -0.106381 -0.053067 0.081312 -0.001386 -0.246421 0.110351 -0.202078 0.020224 -0.064353 0.023814 0.154282 0.076549 -0.069119 -0.100180 -0.006029 0.035939 -0.011743 -0.056670 -0.177627 0.011952 -0.082073 0.100456 -0.132948 0.079861 -0.057148 -0.132357 0.081318 -0.287290 -0.044785 0.032046 0.002458 0.133655
4 -0.024870 -0.201360 0.068226 -0.025141 0.012702 -0.109899 0.022391 0.068662 0.135305 0.024374 -0.016523 0.195530 0.020376 -0.160785 0.112914 -0.215404 -0.080699 -0.186092 0.088837 -0.025451 0.217730 0.027541 0.092006 0.131833 0.097274 0.068011 -0.043830 -0.005937 0.011554 0.099903 -0.017321 0.064151 -0.171860 0.049943 -0.037269 -0.157365 0.128848 -0.001403 0.015113 -0.043080 -0.082590 0.014123 0.066420 0.181663 -0.108637 0.141616 0.011122 0.011171 0.059054 0.040630 -0.134742 0.063897 0.011265 0.149559 -0.112228 0.003020 0.017387 0.073533 -0.050777 -0.028605 0.073339 -0.181986 0.094206 0.117841 -0.181553 0.031064 0.041263 0.044919 -0.021869 -0.166208 -0.119004 0.067797 -0.146617 -0.009280 0.214718 0.065274 0.059499 -0.064516 -0.037527 -0.162271 -0.077996 -0.000885 -0.038747 -0.022950 -0.232371 -0.019154 0.102833 0.017618 0.139368 -0.012317 0.138498 -0.030705 0.120295 -0.067310 -0.172466 0.194333 -0.049593 -0.145019 0.087160 0.074318 -0.193579 0.080631 -0.149501 0.019637 -0.103520 0.022979 0.103974 0.074271 -0.052523 -0.104197 -0.036912 0.092427 0.006065 -0.005890 -0.203428 0.038525 -0.034980 0.075379 -0.127661 0.026865 -0.049457 -0.102061 0.119842 -0.285159 -0.117142 -0.045467 0.029384 0.166489
24 -0.022558 -0.272306 0.104284 -0.000459 0.006421 -0.123035 0.087668 -0.059887 0.096452 0.051318 -0.073876 0.243194 0.052273 -0.232850 -0.003134 -0.248280 -0.109219 -0.167537 0.076463 0.135302 0.303461 0.001149 0.172580 0.141116 -0.042875 0.045366 -0.087772 -0.056938 -0.041767 0.151591 -0.000513 0.084993 -0.146854 0.016233 -0.180280 -0.168178 0.231376 0.059283 0.012168 -0.063296 -0.181623 0.111726 0.034177 0.214783 -0.024261 0.277039 -0.022909 -0.027113 -0.048359 -0.026597 -0.101854 0.157265 0.077172 0.065897 -0.149425 0.047840 -0.048977 0.029776 -0.065469 0.031524 0.092747 -0.278398 0.111687 0.218510 -0.050788 -0.135498 0.002003 -0.024736 -0.016341 -0.118463 -0.046485 0.075157 -0.104117 0.002314 0.117372 0.001714 -0.009670 0.019429 -0.064847 0.019099 -0.054953 -0.124563 -0.030253 -0.165648 -0.209747 0.167184 -0.027948 0.009966 0.013882 -0.051449 0.130241 0.019404 0.104964 -0.057345 -0.063747 0.275143 -0.151524 0.023442 0.081146 -0.055953 -0.299298 0.140473 -0.229965 0.031047 -0.044690 0.021711 0.186257 0.084497 -0.077541 -0.096342 0.024854 -0.008698 -0.026871 -0.098971 -0.165256 -0.011580 -0.120464 0.114468 -0.139835 0.129456 -0.056782 -0.150113 0.049647 -0.295546 0.008059 0.103525 -0.009034 0.110095
14 -0.027095 -0.216439 0.076092 -0.028833 0.011401 -0.106957 0.029651 0.054881 0.131209 0.031221 -0.029100 0.200611 0.017188 -0.165690 0.105366 -0.216435 -0.082764 -0.185008 0.085728 -0.018993 0.226772 0.029629 0.101957 0.136098 0.083162 0.067319 -0.043168 -0.006497 0.001168 0.106451 -0.013129 0.069808 -0.168728 0.049848 -0.046097 -0.159673 0.131587 0.001622 0.012695 -0.048038 -0.099141 0.026770 0.064465 0.184329 -0.105235 0.158697 0.011338 0.012230 0.052319 0.042459 -0.137811 0.077046 0.013642 0.145472 -0.114598 0.005648 0.004151 0.074796 -0.056284 -0.021758 0.074217 -0.200117 0.099921 0.127476 -0.179350 0.014461 0.046328 0.037193 -0.025685 -0.169861 -0.116992 0.070614 -0.151787 -0.001489 0.212894 0.064012 0.056832 -0.062873 -0.041837 -0.158543 -0.081143 -0.008042 -0.036939 -0.035900 -0.244291 0.001900 0.089042 0.018810 0.132168 -0.018682 0.145514 -0.025781 0.127668 -0.066463 -0.168354 0.212527 -0.059979 -0.129748 0.093828 0.064184 -0.209442 0.088048 -0.167840 0.019364 -0.098992 0.024749 0.120472 0.080193 -0.058784 -0.107083 -0.039348 0.085116 -0.000548 -0.016078 -0.199892 0.032110 -0.045458 0.078384 -0.134454 0.038187 -0.053980 -0.111625 0.118559 -0.292197 -0.103155 -0.036331 0.020772 0.162050
7 -0.027940 -0.193762 0.049666 -0.033171 0.002327 -0.103094 0.006919 0.140771 0.193538 0.012767 0.014917 0.186423 -0.004984 -0.131839 0.190622 -0.212247 -0.068974 -0.231260 0.093180 -0.127177 0.189146 0.033395 0.066325 0.152760 0.204009 0.062565 -0.032459 -0.000832 0.021160 0.081374 -0.017209 0.064911 -0.195510 0.046736 0.039209 -0.161628 0.071225 -0.034834 0.006841 -0.050764 -0.049017 -0.025895 0.091474 0.171934 -0.177719 0.084112 0.048819 0.042354 0.141071 0.095893 -0.164591 0.048188 -0.036871 0.197609 -0.082794 -0.024775 0.052398 0.101167 -0.032987 -0.052854 0.063342 -0.139443 0.104079 0.082547 -0.285230 0.118511 0.072559 0.098561 -0.031568 -0.214907 -0.161906 0.070793 -0.210285 -0.003529 0.291517 0.101274 0.084173 -0.124018 -0.030810 -0.288344 -0.100643 0.098286 -0.043995 0.066519 -0.281943 -0.149342 0.169244 0.036293 0.218744 0.011089 0.165199 -0.059664 0.164172 -0.054511 -0.242829 0.184871 0.023609 -0.254378 0.112119 0.161449 -0.169076 0.076011 -0.149224 0.006433 -0.148579 0.022550 0.071774 0.075052 -0.031614 -0.109292 -0.067579 0.173468 0.017937 0.030333 -0.253270 0.068262 0.011333 0.057202 -0.139810 -0.009959 -0.051329 -0.068600 0.188204 -0.296707 -0.213982 -0.129629 0.055818 0.223439
30 -0.019773 -0.277528 0.097602 0.003282 0.003560 -0.121020 0.094971 -0.068777 0.087744 0.049715 -0.084267 0.242156 0.048770 -0.232227 -0.012326 -0.247793 -0.108422 -0.160341 0.069996 0.150861 0.302130 -0.004294 0.178323 0.129392 -0.052462 0.038577 -0.086477 -0.057992 -0.045970 0.147770 0.001956 0.079815 -0.130240 0.012057 -0.184331 -0.151457 0.224957 0.065013 0.013663 -0.059593 -0.177068 0.111140 0.031474 0.206652 -0.011814 0.269390 -0.022754 -0.039068 -0.060319 -0.028400 -0.094857 0.155654 0.085692 0.045912 -0.145103 0.046141 -0.058686 0.024908 -0.059908 0.034465 0.090822 -0.274823 0.105889 0.218027 -0.026530 -0.145013 -0.003588 -0.033772 -0.009075 -0.113707 -0.036612 0.069377 -0.092082 -0.000312 0.106793 -0.005718 -0.008265 0.032798 -0.064457 0.035124 -0.058203 -0.138425 -0.035115 -0.179828 -0.197401 0.185479 -0.035446 0.008047 -0.002349 -0.052458 0.129506 0.018273 0.097766 -0.050202 -0.052834 0.266885 -0.163388 0.034837 0.078765 -0.066009 -0.293365 0.138583 -0.234667 0.021550 -0.039977 0.016059 0.188799 0.082180 -0.082769 -0.097744 0.022650 -0.017012 -0.031454 -0.107740 -0.152334 -0.013840 -0.127421 0.119795 -0.143216 0.135916 -0.062358 -0.149103 0.042646 -0.289371 0.016265 0.112562 -0.007114 0.102130
6 -0.032613 -0.191760 0.049785 -0.031861 0.007696 -0.108198 -0.003764 0.177734 0.213886 0.006964 0.036162 0.186317 -0.014748 -0.120391 0.229363 -0.220247 -0.069366 -0.257346 0.106741 -0.173788 0.179406 0.039223 0.051394 0.157003 0.253344 0.068670 -0.020852 0.003753 0.034988 0.078986 -0.024771 0.058598 -0.205190 0.054482 0.082580 -0.162831 0.050940 -0.043827 0.004085 -0.052787 -0.025301 -0.047735 0.106604 0.165568 -0.211789 0.053979 0.061642 0.050153 0.177466 0.120204 -0.176882 0.032449 -0.060824 0.222597 -0.066667 -0.041137 0.073659 0.114400 -0.028171 -0.078114 0.064345 -0.117957 0.105540 0.060781 -0.332609 0.159115 0.079594 0.119515 -0.037929 -0.236123 -0.180825 0.069013 -0.236562 -0.003447 0.332664 0.117145 0.103998 -0.148826 -0.028730 -0.342630 -0.115172 0.138911 -0.044306 0.105221 -0.296160 -0.211183 0.214019 0.040745 0.261172 0.021079 0.171743 -0.072875 0.178773 -0.052772 -0.278868 0.175506 0.052321 -0.308458 0.126358 0.199816 -0.149389 0.067627 -0.134193 0.004319 -0.175056 0.031400 0.055559 0.080931 -0.023972 -0.116077 -0.081786 0.206557 0.026553 0.058604 -0.273281 0.090019 0.038221 0.048792 -0.138966 -0.036500 -0.047838 -0.062138 0.215061 -0.310469 -0.259812 -0.167071 0.068658 0.241040
28 -0.026528 -0.250501 0.092681 -0.008432 0.006736 -0.111571 0.068760 -0.024695 0.101800 0.040133 -0.055708 0.223317 0.037918 -0.197241 0.026939 -0.228543 -0.097715 -0.169879 0.077966 0.088602 0.265223 0.005148 0.145483 0.130288 -0.006445 0.048832 -0.076231 -0.039929 -0.021973 0.130389 -0.002848 0.078924 -0.140411 0.027025 -0.136587 -0.159837 0.192413 0.043174 0.013813 -0.055688 -0.149874 0.076992 0.044574 0.199133 -0.050146 0.229955 -0.014909 -0.017962 -0.019047 -0.006528 -0.116145 0.128930 0.059224 0.082573 -0.133021 0.032937 -0.032924 0.038638 -0.061421 0.017248 0.084236 -0.244473 0.104334 0.185286 -0.084403 -0.085429 0.010234 -0.002567 -0.020533 -0.133518 -0.066960 0.070417 -0.113297 -0.003888 0.138575 0.020932 0.009928 -0.000001 -0.058565 -0.033154 -0.063191 -0.089552 -0.029327 -0.121071 -0.208144 0.113266 0.011441 0.010896 0.047696 -0.039235 0.131703 0.003801 0.106154 -0.059065 -0.087992 0.241709 -0.118885 -0.022650 0.081646 -0.020733 -0.258964 0.122914 -0.206873 0.022918 -0.054605 0.022608 0.161922 0.082886 -0.066429 -0.098915 0.007266 0.022322 -0.019930 -0.072803 -0.166888 -0.001088 -0.094288 0.098338 -0.135252 0.090645 -0.052427 -0.129761 0.067563 -0.274197 -0.031249 0.053810 0.001847 0.120067
8 -0.022928 -0.207506 0.070480 -0.027185 0.007402 -0.105215 0.025890 0.072529 0.134977 0.029004 -0.020798 0.192248 0.014616 -0.159760 0.121675 -0.217828 -0.078680 -0.183076 0.091096 -0.032693 0.210987 0.028928 0.092207 0.128478 0.101350 0.073465 -0.040436 -0.002408 0.009751 0.102296 -0.017804 0.065844 -0.173963 0.054777 -0.033519 -0.159441 0.127340 -0.008240 0.018310 -0.041947 -0.083719 0.014844 0.062921 0.183095 -0.113098 0.145187 0.009565 0.013939 0.064493 0.048065 -0.141639 0.060450 0.010136 0.157496 -0.113628 0.001119 0.012921 0.075053 -0.054898 -0.029806 0.067549 -0.181509 0.093315 0.116115 -0.187928 0.029838 0.050644 0.045196 -0.023976 -0.171545 -0.125465 0.065337 -0.152859 -0.006271 0.216953 0.070875 0.059008 -0.071336 -0.035423 -0.173929 -0.078359 0.003748 -0.042542 -0.019189 -0.241274 -0.020340 0.107026 0.020751 0.142833 -0.015023 0.146050 -0.033253 0.126354 -0.068103 -0.179393 0.190357 -0.044889 -0.154138 0.085399 0.075938 -0.185399 0.074496 -0.156525 0.014261 -0.098517 0.018351 0.106749 0.070220 -0.052612 -0.107112 -0.046501 0.099706 0.009175 -0.005237 -0.210362 0.040923 -0.033917 0.072474 -0.131748 0.024141 -0.055018 -0.108478 0.130887 -0.284976 -0.115957 -0.055228 0.031803 0.164538
9 -0.025774 -0.222925 0.074248 -0.020539 0.009552 -0.109880 0.044654 0.029463 0.122375 0.032320 -0.036775 0.207398 0.026072 -0.180488 0.076716 -0.221527 -0.090081 -0.172463 0.079701 0.020607 0.234169 0.023254 0.119023 0.128179 0.051397 0.062132 -0.055067 -0.023613 -0.006345 0.115366 -0.010096 0.074441 -0.160394 0.038889 -0.072798 -0.156114 0.156214 0.014663 0.010267 -0.046313 -0.115395 0.042103 0.055790 0.187469 -0.084610 0.177198 0.003566 -0.002701 0.025439 0.018575 -0.127180 0.092460 0.029054 0.123087 -0.118952 0.013623 -0.007300 0.057905 -0.056525 -0.010143 0.075357 -0.206200 0.091468 0.146286 -0.135743 -0.023313 0.033008 0.021716 -0.021448 -0.148413 -0.093203 0.068719 -0.127990 -0.004991 0.182751 0.044658 0.036965 -0.036187 -0.046805 -0.105391 -0.068793 -0.038356 -0.039394 -0.071978 -0.223016 0.039688 0.060556 0.016346 0.094807 -0.023390 0.138991 -0.015417 0.119444 -0.059313 -0.138891 0.211331 -0.077078 -0.092278 0.082719 0.035628 -0.222953 0.092055 -0.178178 0.019175 -0.080635 0.020727 0.126592 0.077628 -0.062925 -0.103209 -0.017927 0.062892 -0.001655 -0.036000 -0.186652 0.019789 -0.062329 0.089469 -0.131074 0.059776 -0.054928 -0.116324 0.096438 -0.277278 -0.076222 0.001390 0.015493 0.144572
5 -0.029352 -0.205908 0.058812 -0.027327 0.009897 -0.108170 0.023055 0.092110 0.164240 0.017311 0.001277 0.192778 0.003245 -0.141592 0.147541 -0.217339 -0.077716 -0.210421 0.089706 -0.068933 0.205419 0.032001 0.078731 0.145479 0.146187 0.059636 -0.038217 -0.009431 0.011728 0.091057 -0.018739 0.063532 -0.179637 0.047538 0.001706 -0.157533 0.101666 -0.012379 0.011204 -0.045804 -0.063483 -0.001146 0.071986 0.169965 -0.141171 0.115665 0.029990 0.025223 0.094714 0.065107 -0.146007 0.062995 -0.007621 0.160870 -0.092002 -0.014297 0.033942 0.082307 -0.040406 -0.041621 0.063428 -0.161906 0.100410 0.104193 -0.229051 0.066511 0.058500 0.065967 -0.024299 -0.185577 -0.135189 0.065275 -0.179206 -0.008263 0.245585 0.075668 0.065028 -0.095665 -0.037442 -0.219548 -0.090294 0.047532 -0.041382 0.014766 -0.255462 -0.081950 0.131967 0.031176 0.173222 -0.003501 0.149049 -0.043551 0.142283 -0.054989 -0.203056 0.188641 -0.017252 -0.190593 0.102997 0.116501 -0.184063 0.080238 -0.152900 0.007151 -0.124197 0.021552 0.091972 0.071116 -0.043634 -0.105719 -0.053943 0.128917 0.011166 0.005585 -0.226162 0.055625 -0.008861 0.068340 -0.127463 0.013224 -0.049938 -0.084054 0.150961 -0.287565 -0.162466 -0.078723 0.035497 0.190376
31 -0.021986 -0.232566 0.084775 -0.012059 0.006759 -0.115759 0.055424 0.000118 0.110509 0.037994 -0.044252 0.219541 0.036223 -0.194826 0.056342 -0.230445 -0.098130 -0.169769 0.080670 0.051656 0.255462 0.011478 0.127802 0.135779 0.027369 0.054625 -0.059825 -0.026492 -0.014555 0.120234 -0.008632 0.077227 -0.157929 0.037116 -0.100918 -0.153878 0.171756 0.025465 0.017027 -0.053567 -0.127487 0.063248 0.048076 0.188735 -0.067620 0.202858 -0.005310 -0.010881 0.006095 0.011550 -0.122588 0.108803 0.044790 0.103183 -0.128417 0.020021 -0.015709 0.048282 -0.060369 -0.000983 0.082740 -0.224048 0.095057 0.159858 -0.117195 -0.050847 0.020436 0.006786 -0.018653 -0.139608 -0.083380 0.065457 -0.122997 -0.002607 0.165379 0.036429 0.030652 -0.024761 -0.044779 -0.074425 -0.065286 -0.060249 -0.036794 -0.095652 -0.216982 0.072424 0.035684 0.010649 0.074487 -0.034348 0.131042 -0.003030 0.115768 -0.061207 -0.123411 0.228002 -0.099608 -0.062632 0.080732 0.016202 -0.242075 0.105315 -0.190212 0.018084 -0.073026 0.018392 0.142079 0.076625 -0.060735 -0.098567 -0.012785 0.041770 -0.012524 -0.055525 -0.179864 0.015888 -0.077798 0.097821 -0.136303 0.077439 -0.055397 -0.122481 0.083355 -0.281238 -0.055014 0.026144 0.004894 0.132418
20 -0.024807 -0.223512 0.076124 -0.019101 0.005863 -0.114176 0.045424 0.035715 0.118994 0.030588 -0.036596 0.202007 0.028309 -0.177321 0.084167 -0.223521 -0.092692 -0.177130 0.082795 0.009540 0.240017 0.019641 0.116956 0.132716 0.061748 0.063907 -0.047359 -0.019535 -0.002386 0.108500 -0.014635 0.068612 -0.161008 0.041864 -0.067478 -0.152733 0.153488 0.008974 0.011106 -0.051802 -0.110866 0.039256 0.052835 0.183069 -0.084159 0.174882 0.006904 0.000491 0.032728 0.022845 -0.131206 0.087591 0.031270 0.121963 -0.121310 0.013229 -0.002309 0.056772 -0.058535 -0.009203 0.079971 -0.203083 0.097355 0.143374 -0.146667 -0.015802 0.034916 0.027411 -0.023160 -0.149754 -0.101166 0.068308 -0.138900 -0.003854 0.188953 0.052674 0.045151 -0.044283 -0.041753 -0.114812 -0.072290 -0.035483 -0.039316 -0.067628 -0.224876 0.036202 0.064494 0.017854 0.101585 -0.022227 0.142725 -0.016526 0.119360 -0.065012 -0.144521 0.214315 -0.074892 -0.103672 0.083212 0.044405 -0.223428 0.090741 -0.180702 0.022214 -0.085812 0.021917 0.124414 0.075988 -0.054401 -0.100296 -0.027631 0.071144 -0.003040 -0.030541 -0.194251 0.024220 -0.053566 0.086580 -0.131616 0.054873 -0.054614 -0.110643 0.103235 -0.285788 -0.079801 -0.005852 0.015267 0.147613
29 -0.026310 -0.242421 0.083887 -0.014677 0.009654 -0.115652 0.063153 -0.015302 0.110313 0.040419 -0.052323 0.222231 0.032167 -0.200181 0.041964 -0.230111 -0.099753 -0.173649 0.077860 0.069496 0.266639 0.008098 0.135487 0.132787 0.005314 0.045919 -0.069789 -0.037154 -0.018145 0.128518 -0.000888 0.075847 -0.147257 0.028532 -0.128476 -0.158929 0.186951 0.038476 0.015440 -0.056108 -0.138783 0.076398 0.042450 0.190503 -0.054114 0.225435 -0.007658 -0.014810 -0.010224 0.003070 -0.115459 0.121301 0.050054 0.093861 -0.140581 0.031619 -0.023628 0.049071 -0.055633 0.015056 0.084241 -0.242131 0.098412 0.178755 -0.100891 -0.074305 0.016375 -0.001747 -0.013778 -0.134504 -0.074701 0.067237 -0.120813 0.002002 0.152640 0.029952 0.023090 -0.013234 -0.052216 -0.055924 -0.068906 -0.072911 -0.032451 -0.118681 -0.218144 0.097683 0.024303 0.007665 0.059854 -0.041263 0.138639 -0.001376 0.111580 -0.056510 -0.103165 0.246443 -0.116403 -0.039732 0.085069 -0.006922 -0.259089 0.118700 -0.206080 0.023813 -0.062238 0.017972 0.152093 0.074810 -0.066250 -0.100011 0.001337 0.034420 -0.018819 -0.068821 -0.180727 0.004675 -0.088910 0.098046 -0.134637 0.088331 -0.056562 -0.130178 0.075847 -0.289459 -0.038431 0.045920 0.002586 0.125267
26 -0.020146 -0.244897 0.090098 -0.007011 0.006814 -0.113486 0.076188 -0.040696 0.091097 0.041107 -0.064647 0.215964 0.043644 -0.206081 0.012268 -0.223246 -0.094600 -0.158434 0.069773 0.106153 0.270493 0.002925 0.152994 0.127298 -0.023099 0.039556 -0.079661 -0.047491 -0.032554 0.135980 0.002428 0.076737 -0.134369 0.016203 -0.154027 -0.156854 0.199308 0.048437 0.011434 -0.056663 -0.156671 0.085578 0.034008 0.192876 -0.037493 0.243638 -0.018290 -0.023320 -0.031774 -0.009213 -0.100519 0.136771 0.062330 0.068015 -0.136387 0.034929 -0.037818 0.034929 -0.061038 0.024081 0.085469 -0.248212 0.100946 0.194525 -0.062128 -0.103638 0.008345 -0.017932 -0.013991 -0.119305 -0.052750 0.066369 -0.102541 -0.000583 0.124379 0.007097 -0.001106 0.009681 -0.057435 -0.011985 -0.061349 -0.097870 -0.029307 -0.137476 -0.195715 0.133776 -0.008910 0.007660 0.027654 -0.044596 0.126657 0.010367 0.104842 -0.048607 -0.072944 0.241732 -0.131028 -0.001672 0.082047 -0.036234 -0.262744 0.123026 -0.210112 0.025949 -0.045937 0.020081 0.167949 0.078759 -0.066148 -0.091597 0.009738 0.007232 -0.020432 -0.079821 -0.158917 -0.003483 -0.100437 0.102311 -0.129925 0.101454 -0.055086 -0.137409 0.056409 -0.281073 -0.013741 0.078162 -0.004095 0.107327
25 -0.027286 -0.235442 0.081935 -0.014323 0.003740 -0.110917 0.056846 -0.013068 0.110577 0.037761 -0.051742 0.209063 0.033950 -0.186182 0.040460 -0.223771 -0.090434 -0.168669 0.077619 0.069428 0.256805 0.008229 0.135686 0.131162 0.011694 0.045162 -0.066266 -0.035133 -0.023572 0.125362 -0.002022 0.074564 -0.143299 0.023411 -0.122471 -0.153115 0.172900 0.038275 0.011265 -0.054748 -0.138757 0.071423 0.042131 0.184239 -0.052907 0.216009 -0.006103 -0.008037 -0.002472 0.003725 -0.115592 0.118516 0.049605 0.093929 -0.132100 0.025694 -0.021390 0.042247 -0.056365 0.013583 0.078793 -0.226797 0.101241 0.167648 -0.101396 -0.067579 0.016368 0.003928 -0.021048 -0.131893 -0.072167 0.063412 -0.111875 0.001226 0.145820 0.022287 0.015233 -0.011297 -0.049277 -0.057029 -0.063155 -0.071719 -0.031318 -0.108776 -0.209902 0.086753 0.023768 0.006032 0.057275 -0.039383 0.127130 -0.002044 0.111553 -0.058818 -0.103819 0.233192 -0.105725 -0.041888 0.083187 -0.001813 -0.247130 0.113982 -0.196582 0.024166 -0.060246 0.018148 0.149281 0.078030 -0.061846 -0.098402 -0.003355 0.032807 -0.013448 -0.063790 -0.175771 0.006142 -0.080090 0.094389 -0.132384 0.081571 -0.050774 -0.119916 0.073804 -0.277930 -0.043750 0.044310 0.001237 0.123952
11 -0.031879 -0.194207 0.058164 -0.030721 0.009457 -0.107337 0.004972 0.125349 0.177001 0.013517 0.008363 0.187457 -0.000751 -0.132880 0.174925 -0.216205 -0.075515 -0.217895 0.095229 -0.106771 0.196992 0.033442 0.072935 0.146484 0.174219 0.066721 -0.031568 0.002231 0.019854 0.082401 -0.018781 0.063035 -0.187257 0.049492 0.026764 -0.156156 0.088560 -0.024632 0.011892 -0.042895 -0.050138 -0.014310 0.086371 0.170816 -0.161618 0.098907 0.039174 0.037847 0.118014 0.083596 -0.155951 0.048054 -0.024572 0.186283 -0.089903 -0.021774 0.045305 0.098297 -0.045458 -0.049558 0.065026 -0.152899 0.103065 0.090329 -0.263610 0.098257 0.062069 0.081312 -0.026796 -0.203062 -0.151544 0.066480 -0.194367 -0.007577 0.276210 0.094582 0.082646 -0.115252 -0.033287 -0.259665 -0.093525 0.075447 -0.043583 0.039835 -0.272992 -0.116035 0.159850 0.031181 0.203800 0.004137 0.155283 -0.054686 0.153451 -0.057720 -0.227333 0.182737 0.005503 -0.227660 0.105485 0.144681 -0.169159 0.077916 -0.146612 0.010862 -0.137431 0.023188 0.081530 0.070694 -0.036113 -0.111281 -0.064596 0.153933 0.012750 0.022891 -0.239296 0.060311 -0.000292 0.064257 -0.134234 -0.007674 -0.048613 -0.082258 0.172055 -0.295568 -0.187161 -0.113354 0.042735 0.204103
17 -0.036108 -0.198556 0.051365 -0.036212 0.002247 -0.114604 -0.004897 0.183030 0.225660 0.012009 0.035549 0.196707 -0.011752 -0.119554 0.231051 -0.222775 -0.069736 -0.264964 0.105179 -0.174267 0.186860 0.038805 0.057245 0.161758 0.258533 0.075956 -0.023576 0.009301 0.037643 0.082140 -0.024059 0.064636 -0.212420 0.057491 0.077503 -0.175950 0.056837 -0.045327 0.007651 -0.048763 -0.026729 -0.054707 0.103472 0.176305 -0.216716 0.054865 0.061707 0.059963 0.178276 0.122856 -0.186216 0.029015 -0.057319 0.225251 -0.071555 -0.041821 0.069793 0.124554 -0.030386 -0.078564 0.063814 -0.127297 0.111703 0.060080 -0.342439 0.170076 0.084886 0.120575 -0.035874 -0.239137 -0.192936 0.070695 -0.237912 -0.009281 0.340628 0.126395 0.102307 -0.159882 -0.026824 -0.359296 -0.113909 0.139799 -0.043232 0.110690 -0.313621 -0.212046 0.220366 0.039322 0.274290 0.019719 0.173039 -0.077545 0.181333 -0.054780 -0.287836 0.178515 0.056132 -0.310955 0.130416 0.210806 -0.153316 0.070132 -0.141912 0.007375 -0.175188 0.026849 0.061542 0.076719 -0.030426 -0.116561 -0.088599 0.210722 0.031638 0.059445 -0.282556 0.085964 0.034994 0.055798 -0.144922 -0.043048 -0.046077 -0.058989 0.221906 -0.312189 -0.266127 -0.176808 0.065402 0.253765
18 -0.023478 -0.205598 0.065359 -0.025657 0.009778 -0.106807 0.025590 0.063271 0.136977 0.030718 -0.021685 0.192731 0.019627 -0.158143 0.111095 -0.214134 -0.082322 -0.182118 0.081275 -0.022115 0.218994 0.024117 0.099727 0.131960 0.097126 0.066837 -0.043380 -0.010426 0.006943 0.102984 -0.014733 0.070444 -0.165524 0.047084 -0.038259 -0.156503 0.124452 -0.001047 0.014477 -0.043513 -0.089321 0.025462 0.059292 0.173962 -0.108540 0.150242 0.009929 0.012863 0.060457 0.041974 -0.135458 0.069688 0.012890 0.147537 -0.110154 0.006331 0.012002 0.067550 -0.051170 -0.023866 0.072415 -0.185645 0.093606 0.120083 -0.175637 0.021144 0.044841 0.040789 -0.019231 -0.159912 -0.116394 0.064228 -0.147711 -0.007709 0.212658 0.065239 0.058247 -0.062839 -0.036265 -0.162114 -0.081351 0.004081 -0.036266 -0.032562 -0.239391 -0.014027 0.097422 0.019903 0.129765 -0.011493 0.143476 -0.030460 0.130070 -0.065724 -0.171898 0.201224 -0.050812 -0.137216 0.091439 0.068620 -0.198791 0.087987 -0.162504 0.017231 -0.097561 0.021147 0.106868 0.069668 -0.051054 -0.106732 -0.039522 0.090929 0.000311 -0.015080 -0.204009 0.033258 -0.037395 0.072970 -0.127899 0.031865 -0.052423 -0.105830 0.122324 -0.282245 -0.110195 -0.044756 0.022407 0.159796
15 -0.026112 -0.249067 0.092490 -0.010247 0.006447 -0.109803 0.075764 -0.041829 0.094796 0.041625 -0.063644 0.222549 0.042289 -0.207154 0.016066 -0.229438 -0.101964 -0.159212 0.069186 0.101788 0.275381 0.005252 0.150714 0.129629 -0.025796 0.043454 -0.077854 -0.043845 -0.030377 0.129002 -0.002127 0.078628 -0.137526 0.021585 -0.151554 -0.156384 0.200363 0.048213 0.016953 -0.052872 -0.161504 0.090299 0.036625 0.198121 -0.032744 0.246721 -0.017926 -0.024338 -0.032752 -0.015071 -0.105076 0.134863 0.066390 0.073940 -0.143675 0.032429 -0.043861 0.031155 -0.059689 0.025979 0.088756 -0.248431 0.102050 0.191430 -0.063848 -0.100774 0.010354 -0.016447 -0.011698 -0.120840 -0.053978 0.065995 -0.100105 -0.003197 0.124334 0.011475 0.007487 0.007186 -0.060030 -0.015169 -0.057851 -0.100347 -0.032310 -0.145154 -0.206315 0.133179 -0.006757 0.004127 0.030225 -0.043126 0.130510 0.013555 0.105553 -0.056610 -0.083837 0.249609 -0.132156 -0.002052 0.080231 -0.028471 -0.267425 0.121855 -0.216759 0.025932 -0.047250 0.014390 0.168381 0.078654 -0.071596 -0.100082 0.011250 0.009152 -0.022749 -0.086166 -0.165213 0.001249 -0.101859 0.111862 -0.139279 0.110465 -0.053485 -0.139803 0.062055 -0.280393 -0.016355 0.075224 -0.001581 0.113829
19 -0.019574 -0.251006 0.093242 -0.011143 0.005254 -0.113953 0.070954 -0.032333 0.102535 0.042718 -0.065823 0.226435 0.038970 -0.205849 0.022529 -0.228194 -0.103619 -0.165614 0.075767 0.097523 0.274069 0.002430 0.149993 0.133330 -0.013756 0.048874 -0.074729 -0.042419 -0.030130 0.128902 -0.001126 0.078308 -0.142898 0.019806 -0.144314 -0.158306 0.193111 0.045554 0.014292 -0.053724 -0.154248 0.085130 0.039658 0.195247 -0.037949 0.239627 -0.008964 -0.022516 -0.025187 -0.006938 -0.109111 0.130837 0.059048 0.075624 -0.134617 0.036574 -0.039352 0.041410 -0.056073 0.018294 0.085252 -0.251276 0.105275 0.192397 -0.075224 -0.097193 0.016313 -0.011927 -0.017645 -0.128800 -0.059179 0.067670 -0.107992 0.000715 0.135021 0.014099 0.013378 0.001432 -0.059459 -0.029380 -0.061607 -0.093764 -0.032805 -0.137754 -0.213280 0.124562 0.005601 0.011217 0.037424 -0.044301 0.132358 0.011136 0.110048 -0.052579 -0.090669 0.250873 -0.127670 -0.017792 0.083364 -0.025725 -0.266379 0.123122 -0.215321 0.022828 -0.056299 0.017705 0.163712 0.079160 -0.071118 -0.099486 0.004175 0.018447 -0.019334 -0.081058 -0.166061 0.003768 -0.095750 0.109777 -0.141633 0.105241 -0.057352 -0.136631 0.064421 -0.290804 -0.024174 0.066542 -0.005184 0.115373
27 -0.021228 -0.255960 0.088637 -0.009478 0.006526 -0.113873 0.076754 -0.033597 0.095150 0.044610 -0.066382 0.222670 0.040854 -0.203672 0.014898 -0.230836 -0.096706 -0.162559 0.072916 0.100311 0.277356 0.005022 0.155018 0.132851 -0.019656 0.040932 -0.080069 -0.043551 -0.034168 0.136444 0.000753 0.075764 -0.142186 0.017987 -0.147234 -0.158830 0.199047 0.047396 0.009774 -0.057548 -0.161687 0.090588 0.037211 0.197355 -0.034815 0.244375 -0.009571 -0.022928 -0.029704 -0.010315 -0.102079 0.138272 0.063623 0.074424 -0.138155 0.032723 -0.040307 0.036756 -0.055192 0.023482 0.083022 -0.246876 0.100148 0.192873 -0.064253 -0.102814 0.006930 -0.012500 -0.015537 -0.121356 -0.058121 0.070396 -0.104093 -0.003564 0.126610 0.009206 0.006891 0.003613 -0.059653 -0.012592 -0.061816 -0.101952 -0.031893 -0.137646 -0.210285 0.134222 -0.000706 0.007744 0.027936 -0.043491 0.126721 0.006967 0.105166 -0.052731 -0.083809 0.250706 -0.129681 -0.009268 0.083960 -0.033930 -0.274385 0.123931 -0.209734 0.021451 -0.049871 0.019229 0.170783 0.075931 -0.074683 -0.094238 0.012543 0.011485 -0.022323 -0.084916 -0.163230 -0.004185 -0.103212 0.108995 -0.140823 0.107159 -0.057683 -0.132340 0.063041 -0.287271 -0.018064 0.076897 -0.002317 0.113991
23 -0.022015 -0.250036 0.088404 -0.005435 0.006462 -0.113119 0.077338 -0.040952 0.095215 0.043698 -0.070549 0.229535 0.044316 -0.217975 0.006955 -0.228896 -0.103572 -0.152684 0.072320 0.116396 0.278346 0.001514 0.152296 0.131940 -0.030926 0.042295 -0.080305 -0.049254 -0.035964 0.136997 0.000307 0.079808 -0.141201 0.022913 -0.161872 -0.160244 0.210563 0.048316 0.009322 -0.053480 -0.165305 0.096884 0.038083 0.201353 -0.028594 0.248519 -0.016111 -0.023885 -0.040772 -0.018253 -0.101601 0.138142 0.074753 0.064019 -0.144252 0.034984 -0.046666 0.032534 -0.061316 0.022190 0.087973 -0.259692 0.102891 0.200826 -0.052906 -0.113793 0.010267 -0.018643 -0.011873 -0.117151 -0.051340 0.068301 -0.096256 0.001230 0.120701 0.011924 0.006716 0.010901 -0.054865 -0.001769 -0.053912 -0.113333 -0.029819 -0.153102 -0.206824 0.151665 -0.013368 0.008443 0.021844 -0.048875 0.132814 0.015992 0.098508 -0.054710 -0.080866 0.252872 -0.139483 0.000652 0.077333 -0.034605 -0.278241 0.122306 -0.215140 0.022425 -0.048926 0.012733 0.168790 0.076068 -0.072642 -0.096398 0.010798 0.003235 -0.024794 -0.091919 -0.162641 -0.005305 -0.112212 0.113708 -0.138102 0.113815 -0.055618 -0.137841 0.053985 -0.288256 -0.002952 0.079447 -0.006515 0.108752
21 -0.026287 -0.242773 0.089113 -0.010575 0.002803 -0.113713 0.071899 -0.033017 0.100185 0.045376 -0.060585 0.221542 0.039944 -0.208128 0.021062 -0.226929 -0.097036 -0.161565 0.074855 0.095347 0.270260 0.003828 0.145939 0.131433 -0.010970 0.041467 -0.073147 -0.043364 -0.029057 0.131870 0.002529 0.075819 -0.143875 0.024054 -0.146228 -0.160068 0.197000 0.049625 0.014540 -0.053133 -0.157304 0.089564 0.037996 0.193604 -0.045325 0.236559 -0.009158 -0.020953 -0.021571 -0.008452 -0.102593 0.134542 0.064507 0.073901 -0.137591 0.033794 -0.036190 0.033798 -0.060791 0.022549 0.081631 -0.244841 0.101702 0.192340 -0.069434 -0.096852 0.011447 -0.014481 -0.017155 -0.130034 -0.055839 0.064110 -0.107768 0.002356 0.135885 0.015137 0.005633 -0.001070 -0.054757 -0.020691 -0.062235 -0.092097 -0.034064 -0.136139 -0.209656 0.120428 0.000067 0.008059 0.039832 -0.044436 0.132203 0.010006 0.102504 -0.048891 -0.086567 0.243095 -0.127594 -0.013439 0.081798 -0.024190 -0.265973 0.118665 -0.210407 0.026133 -0.051119 0.019825 0.161459 0.074238 -0.070355 -0.098512 0.012864 0.020508 -0.020747 -0.077040 -0.167755 0.004480 -0.101118 0.105065 -0.134860 0.106762 -0.056028 -0.134224 0.065857 -0.287494 -0.021443 0.068303 0.002890 0.113839
22 -0.021640 -0.223293 0.075661 -0.021227 0.009372 -0.116103 0.036187 0.045510 0.128453 0.030479 -0.031915 0.210333 0.026853 -0.178732 0.100223 -0.228137 -0.092943 -0.185391 0.091255 0.002360 0.240944 0.024162 0.116630 0.138164 0.072180 0.070500 -0.050240 -0.019603 0.001037 0.113618 -0.014757 0.070000 -0.175777 0.046649 -0.059698 -0.163279 0.146614 0.003064 0.011648 -0.050825 -0.100090 0.030968 0.057512 0.192535 -0.095354 0.174094 0.003457 0.008500 0.046168 0.030977 -0.137188 0.081790 0.020175 0.135453 -0.115706 0.009899 0.006048 0.071020 -0.054826 -0.022124 0.078427 -0.202035 0.099427 0.141678 -0.165434 0.000727 0.036504 0.033740 -0.017139 -0.157639 -0.110744 0.071322 -0.147362 -0.007088 0.209732 0.060040 0.046150 -0.053163 -0.039293 -0.138387 -0.079406 -0.022542 -0.037566 -0.056403 -0.241357 0.014279 0.082508 0.016842 0.122091 -0.020102 0.145953 -0.023008 0.125725 -0.069453 -0.160833 0.215467 -0.067883 -0.119748 0.092006 0.052353 -0.219295 0.093331 -0.171233 0.021641 -0.094002 0.023332 0.123414 0.078935 -0.057472 -0.104866 -0.029868 0.079390 0.002160 -0.021458 -0.203711 0.029994 -0.054416 0.086251 -0.139170 0.046262 -0.053333 -0.116625 0.115824 -0.294205 -0.093319 -0.021780 0.021697 0.159588
10 -0.023487 -0.231967 0.078969 -0.013702 0.009308 -0.106599 0.058320 0.001351 0.115102 0.034845 -0.044665 0.215189 0.029741 -0.185188 0.050296 -0.218339 -0.090661 -0.166510 0.074305 0.053752 0.253460 0.012366 0.130204 0.134184 0.019995 0.049727 -0.061407 -0.033049 -0.016636 0.118083 -0.007965 0.069452 -0.145224 0.034820 -0.109191 -0.153933 0.171586 0.024917 0.008474 -0.054468 -0.130854 0.060758 0.049974 0.188283 -0.060157 0.204653 0.000315 -0.008635 0.008105 0.004829 -0.114441 0.109434 0.047076 0.097232 -0.127359 0.025378 -0.017168 0.045481 -0.058570 0.007005 0.079194 -0.219611 0.091655 0.160804 -0.107432 -0.051288 0.019059 0.004221 -0.021751 -0.137973 -0.075251 0.062513 -0.112976 -0.001922 0.157892 0.034637 0.023008 -0.023106 -0.051231 -0.068977 -0.068367 -0.062909 -0.031688 -0.090080 -0.213075 0.075617 0.029846 0.008372 0.070426 -0.034607 0.134587 -0.003591 0.112316 -0.054246 -0.110758 0.227296 -0.097029 -0.058437 0.081671 0.010567 -0.235550 0.102402 -0.185306 0.022863 -0.068624 0.017560 0.144952 0.078496 -0.065794 -0.093136 -0.002969 0.036474 -0.009228 -0.054975 -0.171384 0.010170 -0.074876 0.094237 -0.130192 0.070708 -0.051265 -0.119058 0.080408 -0.269795 -0.044734 0.027021 0.004831 0.128175
13 -0.022246 -0.227107 0.078209 -0.023561 0.008403 -0.111843 0.046125 0.029253 0.127175 0.036162 -0.040723 0.206788 0.027194 -0.185347 0.082651 -0.224048 -0.091316 -0.180437 0.080259 0.015180 0.245111 0.019746 0.114616 0.134503 0.051758 0.058917 -0.052969 -0.018732 -0.005085 0.116365 -0.011594 0.075389 -0.163942 0.038715 -0.079801 -0.164113 0.159378 0.019194 0.013334 -0.050595 -0.112935 0.044908 0.057625 0.190965 -0.087970 0.185915 0.005581 0.001343 0.028803 0.027861 -0.131122 0.097178 0.031663 0.128531 -0.126928 0.011422 -0.009736 0.059800 -0.052558 -0.010579 0.079138 -0.209623 0.094211 0.145121 -0.141360 -0.022196 0.031419 0.020431 -0.017080 -0.158917 -0.100829 0.066003 -0.135107 -0.005383 0.188027 0.045524 0.038655 -0.043686 -0.048200 -0.119746 -0.074326 -0.036762 -0.037602 -0.068919 -0.234363 0.035802 0.066584 0.015262 0.099386 -0.020573 0.147335 -0.017364 0.118808 -0.065139 -0.142409 0.217373 -0.078405 -0.101927 0.084792 0.037718 -0.220070 0.097426 -0.181598 0.019033 -0.085395 0.016531 0.135958 0.075100 -0.062131 -0.108259 -0.018012 0.066358 -0.004825 -0.032815 -0.197329 0.019436 -0.064072 0.091781 -0.134430 0.054730 -0.053874 -0.115135 0.108344 -0.286582 -0.081968 -0.002681 0.018834 0.152229
16 -0.023310 -0.241890 0.088361 -0.008227 0.005781 -0.113501 0.072868 -0.027502 0.097964 0.041907 -0.062951 0.219644 0.037157 -0.198770 0.028573 -0.228031 -0.100710 -0.163636 0.069923 0.086377 0.265653 0.007614 0.147978 0.127522 -0.005929 0.046981 -0.070665 -0.041325 -0.029246 0.126486 -0.005653 0.079199 -0.147395 0.021519 -0.135270 -0.155701 0.198411 0.038921 0.010937 -0.056365 -0.153547 0.085789 0.042178 0.196018 -0.041358 0.231229 -0.008140 -0.018121 -0.024809 -0.001924 -0.104734 0.129878 0.062244 0.081208 -0.135412 0.030984 -0.035742 0.039621 -0.058364 0.012686 0.087051 -0.249703 0.099168 0.185387 -0.074669 -0.092258 0.014973 -0.006352 -0.014655 -0.129965 -0.059316 0.064005 -0.111369 -0.003531 0.144960 0.016819 0.015797 -0.004357 -0.056919 -0.027929 -0.058154 -0.094239 -0.033780 -0.134304 -0.211511 0.124281 0.007012 0.014293 0.042736 -0.039773 0.128237 0.007974 0.102128 -0.053174 -0.092517 0.246160 -0.122069 -0.023986 0.080593 -0.024049 -0.263014 0.120934 -0.206202 0.020399 -0.059577 0.014921 0.159894 0.075637 -0.067242 -0.097318 0.003005 0.024265 -0.022765 -0.073687 -0.168433 0.006216 -0.098302 0.110223 -0.138004 0.099786 -0.057951 -0.132227 0.066239 -0.288332 -0.022490 0.064437 0.000505 0.122904
12 -0.032272 -0.221776 0.071297 -0.029162 0.006708 -0.113192 0.028152 0.064001 0.146214 0.030028 -0.015989 0.207665 0.014727 -0.163865 0.120327 -0.223125 -0.088726 -0.198883 0.091959 -0.035486 0.230366 0.029783 0.102274 0.140358 0.101840 0.062359 -0.043897 -0.010488 0.005527 0.105776 -0.013076 0.073138 -0.180034 0.047498 -0.037249 -0.160101 0.128498 0.001898 0.013795 -0.048035 -0.091287 0.021348 0.069877 0.182427 -0.119443 0.154944 0.018730 0.014359 0.063793 0.047737 -0.144837 0.079257 0.007639 0.149631 -0.116554 -0.003104 0.015184 0.076045 -0.050780 -0.023246 0.074946 -0.185901 0.096053 0.125385 -0.197313 0.027734 0.049400 0.046831 -0.021268 -0.170729 -0.117421 0.068923 -0.158040 -0.002964 0.222774 0.066086 0.061047 -0.068493 -0.038925 -0.172328 -0.083939 0.010038 -0.042903 -0.026569 -0.250812 -0.022753 0.101383 0.021007 0.141005 -0.017086 0.148970 -0.027962 0.133777 -0.064095 -0.177492 0.204917 -0.043274 -0.154712 0.097027 0.080734 -0.208120 0.085931 -0.167949 0.015905 -0.104889 0.017722 0.112453 0.075264 -0.048041 -0.110734 -0.043602 0.101027 0.003751 -0.009062 -0.213287 0.041666 -0.035707 0.081112 -0.138020 0.028227 -0.054281 -0.103711 0.131979 -0.286914 -0.125042 -0.046692 0.023550 0.171232
